digraph Tree {
node [shape=box, style="rounded", color="black", fontname=helvetica] ;
edge [fontname=helvetica] ;
0 [label="t-1 <= 53.5\nmse = 935.7\nsamples = 876\nvalue = 51.3"] ;
1 [label="t-1 <= 34.0\nmse = 443.1\nsamples = 558\nvalue = 40.2"] ;
0 -> 1 [labeldistance=2.5, labelangle=45, headlabel="True"] ;
2 [label="t-1 <= 19.8\nmse = 270.4\nsamples = 278\nvalue = 32.5"] ;
1 -> 2 ;
3 [label="t-1 <= 14.8\nmse = 176.3\nsamples = 71\nvalue = 22.3"] ;
2 -> 3 ;
4 [label="t-2 <= 7.5\nmse = 82.6\nsamples = 32\nvalue = 16.7"] ;
3 -> 4 ;
5 [label="mse = 0.0\nsamples = 1\nvalue = 48.0"] ;
4 -> 5 ;
6 [label="t-365 <= 76.9\nmse = 52.7\nsamples = 31\nvalue = 15.7"] ;
4 -> 6 ;
7 [label="t-2 <= 9.3\nmse = 38.7\nsamples = 30\nvalue = 15.0"] ;
6 -> 7 ;
8 [label="t-365 <= 18.9\nmse = 54.4\nsamples = 4\nvalue = 23.0"] ;
7 -> 8 ;
9 [label="mse = 0.0\nsamples = 1\nvalue = 11.3"] ;
8 -> 9 ;
10 [label="t-2 <= 8.5\nmse = 12.0\nsamples = 3\nvalue = 26.8"] ;
8 -> 10 ;
11 [label="mse = 0.0\nsamples = 1\nvalue = 31.1"] ;
10 -> 11 ;
12 [label="t-9 <= 17.6\nmse = 4.3\nsamples = 2\nvalue = 24.7"] ;
10 -> 12 ;
13 [label="mse = 0.0\nsamples = 1\nvalue = 26.8"] ;
12 -> 13 ;
14 [label="mse = 0.0\nsamples = 1\nvalue = 22.6"] ;
12 -> 14 ;
15 [label="t-367 <= 50.9\nmse = 25.0\nsamples = 26\nvalue = 13.8"] ;
7 -> 15 ;
16 [label="t-8 <= 28.3\nmse = 13.8\nsamples = 24\nvalue = 12.8"] ;
15 -> 16 ;
17 [label="t-8 <= 7.9\nmse = 8.6\nsamples = 7\nvalue = 9.1"] ;
16 -> 17 ;
18 [label="mse = 0.0\nsamples = 1\nvalue = 16.1"] ;
17 -> 18 ;
19 [label="t-366 <= 24.8\nmse = 0.6\nsamples = 6\nvalue = 8.0"] ;
17 -> 19 ;
20 [label="t-365 <= 14.9\nmse = 0.0\nsamples = 2\nvalue = 8.9"] ;
19 -> 20 ;
21 [label="mse = 0.0\nsamples = 1\nvalue = 8.7"] ;
20 -> 21 ;
22 [label="mse = 0.0\nsamples = 1\nvalue = 9.1"] ;
20 -> 22 ;
23 [label="t-6 <= 36.4\nmse = 0.2\nsamples = 4\nvalue = 7.5"] ;
19 -> 23 ;
24 [label="t-5 <= 56.9\nmse = 0.0\nsamples = 2\nvalue = 7.9"] ;
23 -> 24 ;
25 [label="mse = 0.0\nsamples = 1\nvalue = 8.0"] ;
24 -> 25 ;
26 [label="mse = 0.0\nsamples = 1\nvalue = 7.8"] ;
24 -> 26 ;
27 [label="t-7 <= 31.9\nmse = 0.0\nsamples = 2\nvalue = 7.1"] ;
23 -> 27 ;
28 [label="mse = 0.0\nsamples = 1\nvalue = 7.0"] ;
27 -> 28 ;
29 [label="mse = -0.0\nsamples = 1\nvalue = 7.2"] ;
27 -> 29 ;
30 [label="t-369 <= 38.2\nmse = 8.0\nsamples = 17\nvalue = 14.4"] ;
16 -> 30 ;
31 [label="t-368 <= 26.7\nmse = 5.8\nsamples = 12\nvalue = 15.5"] ;
30 -> 31 ;
32 [label="t-368 <= 18.4\nmse = 5.1\nsamples = 6\nvalue = 13.7"] ;
31 -> 32 ;
33 [label="t-369 <= 10.0\nmse = 3.2\nsamples = 4\nvalue = 14.9"] ;
32 -> 33 ;
34 [label="mse = 0.0\nsamples = 1\nvalue = 12.0"] ;
33 -> 34 ;
35 [label="t-367 <= 17.5\nmse = 0.5\nsamples = 3\nvalue = 15.9"] ;
33 -> 35 ;
36 [label="mse = 0.0\nsamples = 1\nvalue = 16.8"] ;
35 -> 36 ;
37 [label="t-7 <= 44.3\nmse = 0.2\nsamples = 2\nvalue = 15.4"] ;
35 -> 37 ;
38 [label="mse = 0.0\nsamples = 1\nvalue = 15.0"] ;
37 -> 38 ;
39 [label="mse = -0.0\nsamples = 1\nvalue = 15.8"] ;
37 -> 39 ;
40 [label="t-365 <= 23.9\nmse = 0.2\nsamples = 2\nvalue = 11.3"] ;
32 -> 40 ;
41 [label="mse = 0.0\nsamples = 1\nvalue = 10.8"] ;
40 -> 41 ;
42 [label="mse = 0.0\nsamples = 1\nvalue = 11.7"] ;
40 -> 42 ;
43 [label="t-369 <= 21.4\nmse = 0.4\nsamples = 6\nvalue = 17.2"] ;
31 -> 43 ;
44 [label="t-9 <= 28.5\nmse = 0.0\nsamples = 2\nvalue = 16.4"] ;
43 -> 44 ;
45 [label="mse = 0.0\nsamples = 1\nvalue = 16.2"] ;
44 -> 45 ;
46 [label="mse = -0.0\nsamples = 1\nvalue = 16.6"] ;
44 -> 46 ;
47 [label="t-3 <= 11.2\nmse = 0.2\nsamples = 4\nvalue = 17.6"] ;
43 -> 47 ;
48 [label="mse = 0.0\nsamples = 1\nvalue = 18.3"] ;
47 -> 48 ;
49 [label="t-368 <= 27.3\nmse = 0.0\nsamples = 3\nvalue = 17.4"] ;
47 -> 49 ;
50 [label="mse = 0.0\nsamples = 1\nvalue = 17.2"] ;
49 -> 50 ;
51 [label="t-365 <= 50.0\nmse = 0.0\nsamples = 2\nvalue = 17.4"] ;
49 -> 51 ;
52 [label="mse = 0.0\nsamples = 1\nvalue = 17.4"] ;
51 -> 52 ;
53 [label="mse = -0.0\nsamples = 1\nvalue = 17.5"] ;
51 -> 53 ;
54 [label="t-2 <= 20.1\nmse = 3.5\nsamples = 5\nvalue = 11.7"] ;
30 -> 54 ;
55 [label="t-8 <= 38.1\nmse = 0.4\nsamples = 2\nvalue = 9.7"] ;
54 -> 55 ;
56 [label="mse = 0.0\nsamples = 1\nvalue = 9.0"] ;
55 -> 56 ;
57 [label="mse = 0.0\nsamples = 1\nvalue = 10.3"] ;
55 -> 57 ;
58 [label="t-370 <= 37.8\nmse = 0.9\nsamples = 3\nvalue = 13.1"] ;
54 -> 58 ;
59 [label="t-365 <= 52.5\nmse = 0.3\nsamples = 2\nvalue = 12.5"] ;
58 -> 59 ;
60 [label="mse = 0.0\nsamples = 1\nvalue = 12.0"] ;
59 -> 60 ;
61 [label="mse = 0.0\nsamples = 1\nvalue = 13.0"] ;
59 -> 61 ;
62 [label="mse = -0.0\nsamples = 1\nvalue = 14.3"] ;
58 -> 62 ;
63 [label="t-4 <= 30.7\nmse = 21.4\nsamples = 2\nvalue = 25.0"] ;
15 -> 63 ;
64 [label="mse = 0.0\nsamples = 1\nvalue = 20.4"] ;
63 -> 64 ;
65 [label="mse = 0.0\nsamples = 1\nvalue = 29.7"] ;
63 -> 65 ;
66 [label="mse = 0.0\nsamples = 1\nvalue = 37.1"] ;
6 -> 66 ;
67 [label="t-368 <= 33.8\nmse = 207.1\nsamples = 39\nvalue = 26.8"] ;
3 -> 67 ;
68 [label="t-6 <= 30.6\nmse = 89.2\nsamples = 27\nvalue = 22.6"] ;
67 -> 68 ;
69 [label="t-1 <= 15.4\nmse = 81.3\nsamples = 11\nvalue = 30.7"] ;
68 -> 69 ;
70 [label="t-369 <= 14.8\nmse = 2.1\nsamples = 2\nvalue = 45.1"] ;
69 -> 70 ;
71 [label="mse = 0.0\nsamples = 1\nvalue = 43.6"] ;
70 -> 71 ;
72 [label="mse = 0.0\nsamples = 1\nvalue = 46.5"] ;
70 -> 72 ;
73 [label="t-4 <= 20.9\nmse = 42.7\nsamples = 9\nvalue = 27.5"] ;
69 -> 73 ;
74 [label="t-1 <= 18.0\nmse = 7.2\nsamples = 5\nvalue = 32.4"] ;
73 -> 74 ;
75 [label="t-365 <= 39.6\nmse = 1.7\nsamples = 4\nvalue = 31.2"] ;
74 -> 75 ;
76 [label="t-365 <= 24.5\nmse = 0.1\nsamples = 2\nvalue = 29.9"] ;
75 -> 76 ;
77 [label="mse = 0.0\nsamples = 1\nvalue = 29.7"] ;
76 -> 77 ;
78 [label="mse = 0.0\nsamples = 1\nvalue = 30.1"] ;
76 -> 78 ;
79 [label="t-6 <= 19.3\nmse = 0.0\nsamples = 2\nvalue = 32.5"] ;
75 -> 79 ;
80 [label="mse = 0.0\nsamples = 1\nvalue = 32.3"] ;
79 -> 80 ;
81 [label="mse = -0.0\nsamples = 1\nvalue = 32.6"] ;
79 -> 81 ;
82 [label="mse = -0.0\nsamples = 1\nvalue = 37.2"] ;
74 -> 82 ;
83 [label="t-367 <= 23.7\nmse = 18.9\nsamples = 4\nvalue = 21.3"] ;
73 -> 83 ;
84 [label="t-4 <= 24.2\nmse = 5.2\nsamples = 3\nvalue = 23.6"] ;
83 -> 84 ;
85 [label="mse = 0.0\nsamples = 1\nvalue = 20.5"] ;
84 -> 85 ;
86 [label="t-10 <= 21.8\nmse = 1.0\nsamples = 2\nvalue = 25.1"] ;
84 -> 86 ;
87 [label="mse = 0.0\nsamples = 1\nvalue = 24.0"] ;
86 -> 87 ;
88 [label="mse = 0.0\nsamples = 1\nvalue = 26.1"] ;
86 -> 88 ;
89 [label="mse = 0.0\nsamples = 1\nvalue = 14.6"] ;
83 -> 89 ;
90 [label="t-5 <= 31.2\nmse = 18.1\nsamples = 16\nvalue = 17.0"] ;
68 -> 90 ;
91 [label="t-370 <= 22.2\nmse = 4.9\nsamples = 5\nvalue = 20.4"] ;
90 -> 91 ;
92 [label="t-370 <= 16.5\nmse = 0.4\nsamples = 2\nvalue = 17.8"] ;
91 -> 92 ;
93 [label="mse = 0.0\nsamples = 1\nvalue = 18.4"] ;
92 -> 93 ;
94 [label="mse = 0.0\nsamples = 1\nvalue = 17.1"] ;
92 -> 94 ;
95 [label="t-366 <= 23.5\nmse = 0.5\nsamples = 3\nvalue = 22.1"] ;
91 -> 95 ;
96 [label="mse = 0.0\nsamples = 1\nvalue = 21.1"] ;
95 -> 96 ;
97 [label="mse = -0.0\nsamples = 2\nvalue = 22.6"] ;
95 -> 97 ;
98 [label="t-5 <= 67.5\nmse = 16.5\nsamples = 11\nvalue = 15.4"] ;
90 -> 98 ;
99 [label="t-3 <= 70.5\nmse = 7.4\nsamples = 10\nvalue = 14.4"] ;
98 -> 99 ;
100 [label="t-4 <= 36.8\nmse = 3.2\nsamples = 8\nvalue = 13.4"] ;
99 -> 100 ;
101 [label="t-7 <= 40.4\nmse = 0.2\nsamples = 4\nvalue = 14.8"] ;
100 -> 101 ;
102 [label="t-3 <= 24.1\nmse = 0.0\nsamples = 2\nvalue = 15.2"] ;
101 -> 102 ;
103 [label="mse = 0.0\nsamples = 1\nvalue = 15.3"] ;
102 -> 103 ;
104 [label="mse = 0.0\nsamples = 1\nvalue = 15.1"] ;
102 -> 104 ;
105 [label="t-5 <= 44.0\nmse = 0.0\nsamples = 2\nvalue = 14.4"] ;
101 -> 105 ;
106 [label="mse = 0.0\nsamples = 1\nvalue = 14.5"] ;
105 -> 106 ;
107 [label="mse = 0.0\nsamples = 1\nvalue = 14.3"] ;
105 -> 107 ;
108 [label="t-8 <= 49.0\nmse = 2.4\nsamples = 4\nvalue = 12.0"] ;
100 -> 108 ;
109 [label="t-369 <= 44.1\nmse = 0.2\nsamples = 2\nvalue = 10.6"] ;
108 -> 109 ;
110 [label="mse = 0.0\nsamples = 1\nvalue = 10.2"] ;
109 -> 110 ;
111 [label="mse = -0.0\nsamples = 1\nvalue = 11.1"] ;
109 -> 111 ;
112 [label="t-366 <= 30.2\nmse = 0.7\nsamples = 2\nvalue = 13.4"] ;
108 -> 112 ;
113 [label="mse = 0.0\nsamples = 1\nvalue = 12.6"] ;
112 -> 113 ;
114 [label="mse = 0.0\nsamples = 1\nvalue = 14.2"] ;
112 -> 114 ;
115 [label="t-366 <= 23.9\nmse = 3.5\nsamples = 2\nvalue = 18.5"] ;
99 -> 115 ;
116 [label="mse = 0.0\nsamples = 1\nvalue = 20.4"] ;
115 -> 116 ;
117 [label="mse = 0.0\nsamples = 1\nvalue = 16.6"] ;
115 -> 117 ;
118 [label="mse = 0.0\nsamples = 1\nvalue = 25.3"] ;
98 -> 118 ;
119 [label="t-368 <= 41.5\nmse = 337.9\nsamples = 12\nvalue = 36.5"] ;
67 -> 119 ;
120 [label="t-2 <= 14.7\nmse = 188.4\nsamples = 4\nvalue = 54.6"] ;
119 -> 120 ;
121 [label="t-4 <= 16.8\nmse = 15.0\nsamples = 2\nvalue = 41.6"] ;
120 -> 121 ;
122 [label="mse = 0.0\nsamples = 1\nvalue = 37.7"] ;
121 -> 122 ;
123 [label="mse = 0.0\nsamples = 1\nvalue = 45.5"] ;
121 -> 123 ;
124 [label="t-370 <= 38.5\nmse = 23.8\nsamples = 2\nvalue = 67.6"] ;
120 -> 124 ;
125 [label="mse = 0.0\nsamples = 1\nvalue = 62.7"] ;
124 -> 125 ;
126 [label="mse = 0.0\nsamples = 1\nvalue = 72.5"] ;
124 -> 126 ;
127 [label="t-2 <= 25.7\nmse = 167.0\nsamples = 8\nvalue = 27.4"] ;
119 -> 127 ;
128 [label="t-366 <= 20.9\nmse = 22.9\nsamples = 4\nvalue = 17.6"] ;
127 -> 128 ;
129 [label="mse = 0.0\nsamples = 1\nvalue = 9.6"] ;
128 -> 129 ;
130 [label="t-367 <= 33.5\nmse = 2.1\nsamples = 3\nvalue = 20.2"] ;
128 -> 130 ;
131 [label="mse = 0.0\nsamples = 1\nvalue = 22.2"] ;
130 -> 131 ;
132 [label="t-369 <= 47.4\nmse = 0.4\nsamples = 2\nvalue = 19.3"] ;
130 -> 132 ;
133 [label="mse = 0.0\nsamples = 1\nvalue = 19.9"] ;
132 -> 133 ;
134 [label="mse = 0.0\nsamples = 1\nvalue = 18.6"] ;
132 -> 134 ;
135 [label="t-370 <= 33.5\nmse = 116.5\nsamples = 4\nvalue = 37.3"] ;
127 -> 135 ;
136 [label="t-368 <= 50.0\nmse = 20.4\nsamples = 2\nvalue = 27.2"] ;
135 -> 136 ;
137 [label="mse = 0.0\nsamples = 1\nvalue = 22.7"] ;
136 -> 137 ;
138 [label="mse = 0.0\nsamples = 1\nvalue = 31.7"] ;
136 -> 138 ;
139 [label="t-8 <= 41.3\nmse = 8.0\nsamples = 2\nvalue = 47.4"] ;
135 -> 139 ;
140 [label="mse = 0.0\nsamples = 1\nvalue = 50.2"] ;
139 -> 140 ;
141 [label="mse = 0.0\nsamples = 1\nvalue = 44.6"] ;
139 -> 141 ;
142 [label="t-5 <= 159.2\nmse = 254.5\nsamples = 207\nvalue = 36.0"] ;
2 -> 142 ;
143 [label="t-367 <= 24.6\nmse = 227.7\nsamples = 205\nvalue = 35.5"] ;
142 -> 143 ;
144 [label="t-5 <= 21.0\nmse = 117.4\nsamples = 40\nvalue = 27.1"] ;
143 -> 144 ;
145 [label="t-9 <= 44.4\nmse = 42.7\nsamples = 10\nvalue = 18.3"] ;
144 -> 145 ;
146 [label="t-1 <= 25.3\nmse = 23.6\nsamples = 8\nvalue = 20.6"] ;
145 -> 146 ;
147 [label="t-370 <= 21.9\nmse = 11.5\nsamples = 2\nvalue = 28.1"] ;
146 -> 147 ;
148 [label="mse = 0.0\nsamples = 1\nvalue = 24.8"] ;
147 -> 148 ;
149 [label="mse = 0.0\nsamples = 1\nvalue = 31.5"] ;
147 -> 149 ;
150 [label="t-7 <= 11.7\nmse = 2.5\nsamples = 6\nvalue = 18.1"] ;
146 -> 150 ;
151 [label="mse = 0.0\nsamples = 1\nvalue = 15.3"] ;
150 -> 151 ;
152 [label="t-3 <= 29.0\nmse = 1.1\nsamples = 5\nvalue = 18.7"] ;
150 -> 152 ;
153 [label="t-7 <= 30.2\nmse = 0.2\nsamples = 3\nvalue = 17.9"] ;
152 -> 153 ;
154 [label="t-9 <= 32.7\nmse = 0.0\nsamples = 2\nvalue = 17.6"] ;
153 -> 154 ;
155 [label="mse = 0.0\nsamples = 1\nvalue = 17.8"] ;
154 -> 155 ;
156 [label="mse = 0.0\nsamples = 1\nvalue = 17.5"] ;
154 -> 156 ;
157 [label="mse = -0.0\nsamples = 1\nvalue = 18.6"] ;
153 -> 157 ;
158 [label="t-4 <= 24.3\nmse = 0.2\nsamples = 2\nvalue = 19.9"] ;
152 -> 158 ;
159 [label="mse = 0.0\nsamples = 1\nvalue = 19.4"] ;
158 -> 159 ;
160 [label="mse = -0.0\nsamples = 1\nvalue = 20.3"] ;
158 -> 160 ;
161 [label="t-369 <= 23.9\nmse = 10.0\nsamples = 2\nvalue = 9.0"] ;
145 -> 161 ;
162 [label="mse = 0.0\nsamples = 1\nvalue = 12.1"] ;
161 -> 162 ;
163 [label="mse = -0.0\nsamples = 1\nvalue = 5.8"] ;
161 -> 163 ;
164 [label="t-369 <= 27.0\nmse = 108.0\nsamples = 30\nvalue = 30.0"] ;
144 -> 164 ;
165 [label="t-370 <= 16.2\nmse = 88.5\nsamples = 17\nvalue = 34.3"] ;
164 -> 165 ;
166 [label="t-4 <= 18.8\nmse = 48.7\nsamples = 5\nvalue = 24.5"] ;
165 -> 166 ;
167 [label="t-7 <= 24.9\nmse = 9.1\nsamples = 2\nvalue = 32.1"] ;
166 -> 167 ;
168 [label="mse = 0.0\nsamples = 1\nvalue = 29.0"] ;
167 -> 168 ;
169 [label="mse = -0.0\nsamples = 1\nvalue = 35.1"] ;
167 -> 169 ;
170 [label="t-3 <= 29.4\nmse = 12.2\nsamples = 3\nvalue = 19.5"] ;
166 -> 170 ;
171 [label="t-9 <= 15.4\nmse = 3.0\nsamples = 2\nvalue = 17.3"] ;
170 -> 171 ;
172 [label="mse = 0.0\nsamples = 1\nvalue = 19.0"] ;
171 -> 172 ;
173 [label="mse = -0.0\nsamples = 1\nvalue = 15.5"] ;
171 -> 173 ;
174 [label="mse = -0.0\nsamples = 1\nvalue = 24.0"] ;
170 -> 174 ;
175 [label="t-370 <= 24.4\nmse = 48.7\nsamples = 12\nvalue = 38.4"] ;
165 -> 175 ;
176 [label="t-365 <= 22.8\nmse = 21.1\nsamples = 4\nvalue = 45.3"] ;
175 -> 176 ;
177 [label="t-9 <= 20.2\nmse = 0.2\nsamples = 2\nvalue = 40.8"] ;
176 -> 177 ;
178 [label="mse = 0.0\nsamples = 1\nvalue = 40.3"] ;
177 -> 178 ;
179 [label="mse = 0.0\nsamples = 1\nvalue = 41.3"] ;
177 -> 179 ;
180 [label="t-4 <= 66.1\nmse = 1.2\nsamples = 2\nvalue = 49.8"] ;
176 -> 180 ;
181 [label="mse = 0.0\nsamples = 1\nvalue = 48.8"] ;
180 -> 181 ;
182 [label="mse = 0.0\nsamples = 1\nvalue = 50.9"] ;
180 -> 182 ;
183 [label="t-5 <= 50.5\nmse = 26.5\nsamples = 8\nvalue = 34.9"] ;
175 -> 183 ;
184 [label="t-7 <= 44.0\nmse = 11.7\nsamples = 6\nvalue = 32.5"] ;
183 -> 184 ;
185 [label="t-1 <= 22.5\nmse = 5.0\nsamples = 4\nvalue = 30.5"] ;
184 -> 185 ;
186 [label="mse = 0.0\nsamples = 1\nvalue = 26.7"] ;
185 -> 186 ;
187 [label="t-369 <= 14.6\nmse = 0.3\nsamples = 3\nvalue = 31.7"] ;
185 -> 187 ;
188 [label="mse = 0.0\nsamples = 1\nvalue = 31.0"] ;
187 -> 188 ;
189 [label="t-3 <= 18.2\nmse = 0.1\nsamples = 2\nvalue = 32.1"] ;
187 -> 189 ;
190 [label="mse = 0.0\nsamples = 1\nvalue = 31.8"] ;
189 -> 190 ;
191 [label="mse = -0.0\nsamples = 1\nvalue = 32.4"] ;
189 -> 191 ;
192 [label="t-10 <= 23.0\nmse = 0.2\nsamples = 2\nvalue = 36.6"] ;
184 -> 192 ;
193 [label="mse = 0.0\nsamples = 1\nvalue = 37.0"] ;
192 -> 193 ;
194 [label="mse = 0.0\nsamples = 1\nvalue = 36.2"] ;
192 -> 194 ;
195 [label="t-370 <= 29.1\nmse = 1.4\nsamples = 2\nvalue = 42.1"] ;
183 -> 195 ;
196 [label="mse = 0.0\nsamples = 1\nvalue = 41.0"] ;
195 -> 196 ;
197 [label="mse = 0.0\nsamples = 1\nvalue = 43.3"] ;
195 -> 197 ;
198 [label="t-6 <= 36.7\nmse = 77.9\nsamples = 13\nvalue = 24.4"] ;
164 -> 198 ;
199 [label="t-7 <= 23.4\nmse = 67.4\nsamples = 6\nvalue = 31.4"] ;
198 -> 199 ;
200 [label="t-369 <= 44.6\nmse = 23.2\nsamples = 2\nvalue = 21.8"] ;
199 -> 200 ;
201 [label="mse = 0.0\nsamples = 1\nvalue = 26.6"] ;
200 -> 201 ;
202 [label="mse = 0.0\nsamples = 1\nvalue = 17.0"] ;
200 -> 202 ;
203 [label="t-369 <= 50.6\nmse = 20.9\nsamples = 4\nvalue = 36.2"] ;
199 -> 203 ;
204 [label="t-2 <= 26.5\nmse = 2.7\nsamples = 2\nvalue = 32.1"] ;
203 -> 204 ;
205 [label="mse = 0.0\nsamples = 1\nvalue = 30.4"] ;
204 -> 205 ;
206 [label="mse = -0.0\nsamples = 1\nvalue = 33.7"] ;
204 -> 206 ;
207 [label="t-6 <= 23.8\nmse = 5.3\nsamples = 2\nvalue = 40.3"] ;
203 -> 207 ;
208 [label="mse = 0.0\nsamples = 1\nvalue = 38.0"] ;
207 -> 208 ;
209 [label="mse = -0.0\nsamples = 1\nvalue = 42.6"] ;
207 -> 209 ;
210 [label="t-1 <= 30.0\nmse = 9.7\nsamples = 7\nvalue = 18.4"] ;
198 -> 210 ;
211 [label="t-9 <= 28.3\nmse = 2.2\nsamples = 5\nvalue = 20.2"] ;
210 -> 211 ;
212 [label="t-369 <= 56.9\nmse = 0.2\nsamples = 2\nvalue = 18.5"] ;
211 -> 212 ;
213 [label="mse = 0.0\nsamples = 1\nvalue = 18.0"] ;
212 -> 213 ;
214 [label="mse = 0.0\nsamples = 1\nvalue = 18.9"] ;
212 -> 214 ;
215 [label="t-9 <= 36.4\nmse = 0.1\nsamples = 3\nvalue = 21.3"] ;
211 -> 215 ;
216 [label="mse = 0.0\nsamples = 1\nvalue = 20.9"] ;
215 -> 216 ;
217 [label="mse = -0.0\nsamples = 2\nvalue = 21.6"] ;
215 -> 217 ;
218 [label="t-367 <= 22.7\nmse = 1.8\nsamples = 2\nvalue = 14.1"] ;
210 -> 218 ;
219 [label="mse = 0.0\nsamples = 1\nvalue = 12.8"] ;
218 -> 219 ;
220 [label="mse = -0.0\nsamples = 1\nvalue = 15.4"] ;
218 -> 220 ;
221 [label="t-1 <= 20.9\nmse = 233.3\nsamples = 165\nvalue = 37.5"] ;
143 -> 221 ;
222 [label="t-2 <= 32.9\nmse = 577.3\nsamples = 10\nvalue = 54.5"] ;
221 -> 222 ;
223 [label="t-7 <= 60.9\nmse = 146.4\nsamples = 7\nvalue = 68.6"] ;
222 -> 223 ;
224 [label="t-8 <= 17.1\nmse = 47.1\nsamples = 4\nvalue = 59.4"] ;
223 -> 224 ;
225 [label="mse = 0.0\nsamples = 1\nvalue = 48.3"] ;
224 -> 225 ;
226 [label="t-5 <= 40.2\nmse = 8.7\nsamples = 3\nvalue = 63.0"] ;
224 -> 226 ;
227 [label="mse = 0.0\nsamples = 1\nvalue = 67.2"] ;
226 -> 227 ;
228 [label="t-368 <= 61.9\nmse = 0.1\nsamples = 2\nvalue = 61.0"] ;
226 -> 228 ;
229 [label="mse = 0.0\nsamples = 1\nvalue = 60.7"] ;
228 -> 229 ;
230 [label="mse = -0.0\nsamples = 1\nvalue = 61.2"] ;
228 -> 230 ;
231 [label="t-2 <= 24.8\nmse = 11.7\nsamples = 3\nvalue = 81.0"] ;
223 -> 231 ;
232 [label="t-367 <= 44.0\nmse = 0.6\nsamples = 2\nvalue = 78.6"] ;
231 -> 232 ;
233 [label="mse = 0.0\nsamples = 1\nvalue = 79.4"] ;
232 -> 233 ;
234 [label="mse = 0.0\nsamples = 1\nvalue = 77.8"] ;
232 -> 234 ;
235 [label="mse = -0.0\nsamples = 1\nvalue = 85.8"] ;
231 -> 235 ;
236 [label="t-7 <= 48.3\nmse = 19.3\nsamples = 3\nvalue = 21.4"] ;
222 -> 236 ;
237 [label="t-9 <= 48.4\nmse = 4.2\nsamples = 2\nvalue = 18.5"] ;
236 -> 237 ;
238 [label="mse = 0.0\nsamples = 1\nvalue = 16.5"] ;
237 -> 238 ;
239 [label="mse = 0.0\nsamples = 1\nvalue = 20.5"] ;
237 -> 239 ;
240 [label="mse = 0.0\nsamples = 1\nvalue = 27.1"] ;
236 -> 240 ;
241 [label="t-10 <= 29.4\nmse = 191.3\nsamples = 155\nvalue = 36.4"] ;
221 -> 241 ;
242 [label="t-6 <= 50.2\nmse = 116.4\nsamples = 36\nvalue = 31.1"] ;
241 -> 242 ;
243 [label="t-367 <= 26.4\nmse = 77.9\nsamples = 28\nvalue = 27.5"] ;
242 -> 243 ;
244 [label="t-2 <= 29.5\nmse = 5.4\nsamples = 3\nvalue = 41.5"] ;
243 -> 244 ;
245 [label="t-3 <= 36.7\nmse = 0.3\nsamples = 2\nvalue = 39.9"] ;
244 -> 245 ;
246 [label="mse = 0.0\nsamples = 1\nvalue = 40.5"] ;
245 -> 246 ;
247 [label="mse = -0.0\nsamples = 1\nvalue = 39.3"] ;
245 -> 247 ;
248 [label="mse = 0.0\nsamples = 1\nvalue = 44.8"] ;
244 -> 248 ;
249 [label="t-365 <= 44.5\nmse = 60.0\nsamples = 25\nvalue = 25.8"] ;
243 -> 249 ;
250 [label="t-365 <= 43.5\nmse = 52.1\nsamples = 17\nvalue = 23.0"] ;
249 -> 250 ;
251 [label="t-369 <= 58.4\nmse = 40.3\nsamples = 16\nvalue = 24.0"] ;
250 -> 251 ;
252 [label="t-4 <= 11.9\nmse = 31.9\nsamples = 12\nvalue = 26.2"] ;
251 -> 252 ;
253 [label="mse = 0.0\nsamples = 1\nvalue = 12.4"] ;
252 -> 253 ;
254 [label="t-367 <= 30.4\nmse = 16.0\nsamples = 11\nvalue = 27.4"] ;
252 -> 254 ;
255 [label="mse = 0.0\nsamples = 1\nvalue = 37.5"] ;
254 -> 255 ;
256 [label="t-370 <= 44.6\nmse = 6.5\nsamples = 10\nvalue = 26.4"] ;
254 -> 256 ;
257 [label="t-2 <= 27.2\nmse = 3.2\nsamples = 6\nvalue = 24.8"] ;
256 -> 257 ;
258 [label="t-10 <= 19.7\nmse = 1.0\nsamples = 2\nvalue = 27.1"] ;
257 -> 258 ;
259 [label="mse = 0.0\nsamples = 1\nvalue = 28.0"] ;
258 -> 259 ;
260 [label="mse = -0.0\nsamples = 1\nvalue = 26.1"] ;
258 -> 260 ;
261 [label="t-4 <= 46.7\nmse = 0.4\nsamples = 4\nvalue = 23.6"] ;
257 -> 261 ;
262 [label="t-8 <= 33.8\nmse = 0.0\nsamples = 3\nvalue = 24.0"] ;
261 -> 262 ;
263 [label="t-7 <= 24.9\nmse = 0.0\nsamples = 2\nvalue = 24.1"] ;
262 -> 263 ;
264 [label="mse = 0.0\nsamples = 1\nvalue = 24.0"] ;
263 -> 264 ;
265 [label="mse = 0.0\nsamples = 1\nvalue = 24.2"] ;
263 -> 265 ;
266 [label="mse = -0.0\nsamples = 1\nvalue = 23.7"] ;
262 -> 266 ;
267 [label="mse = 0.0\nsamples = 1\nvalue = 22.5"] ;
261 -> 267 ;
268 [label="t-370 <= 75.6\nmse = 1.1\nsamples = 4\nvalue = 28.9"] ;
256 -> 268 ;
269 [label="t-365 <= 14.6\nmse = 0.3\nsamples = 3\nvalue = 29.5"] ;
268 -> 269 ;
270 [label="mse = 0.0\nsamples = 1\nvalue = 30.2"] ;
269 -> 270 ;
271 [label="t-370 <= 50.6\nmse = 0.0\nsamples = 2\nvalue = 29.1"] ;
269 -> 271 ;
272 [label="mse = 0.0\nsamples = 1\nvalue = 29.1"] ;
271 -> 272 ;
273 [label="mse = -0.0\nsamples = 1\nvalue = 29.1"] ;
271 -> 273 ;
274 [label="mse = -0.0\nsamples = 1\nvalue = 27.2"] ;
268 -> 274 ;
275 [label="t-369 <= 61.8\nmse = 7.6\nsamples = 4\nvalue = 17.4"] ;
251 -> 275 ;
276 [label="mse = 0.0\nsamples = 1\nvalue = 13.1"] ;
275 -> 276 ;
277 [label="t-4 <= 38.0\nmse = 2.1\nsamples = 3\nvalue = 18.8"] ;
275 -> 277 ;
278 [label="mse = 0.0\nsamples = 1\nvalue = 16.8"] ;
277 -> 278 ;
279 [label="t-1 <= 24.5\nmse = 0.2\nsamples = 2\nvalue = 19.8"] ;
277 -> 279 ;
280 [label="mse = 0.0\nsamples = 1\nvalue = 19.4"] ;
279 -> 280 ;
281 [label="mse = -0.0\nsamples = 1\nvalue = 20.2"] ;
279 -> 281 ;
282 [label="mse = 0.0\nsamples = 1\nvalue = 8.0"] ;
250 -> 282 ;
283 [label="t-366 <= 84.7\nmse = 27.5\nsamples = 8\nvalue = 31.6"] ;
249 -> 283 ;
284 [label="t-7 <= 40.6\nmse = 13.6\nsamples = 6\nvalue = 29.3"] ;
283 -> 284 ;
285 [label="t-9 <= 34.7\nmse = 2.3\nsamples = 3\nvalue = 32.5"] ;
284 -> 285 ;
286 [label="mse = 0.0\nsamples = 1\nvalue = 30.4"] ;
285 -> 286 ;
287 [label="t-1 <= 27.8\nmse = 0.2\nsamples = 2\nvalue = 33.5"] ;
285 -> 287 ;
288 [label="mse = 0.0\nsamples = 1\nvalue = 33.1"] ;
287 -> 288 ;
289 [label="mse = 0.0\nsamples = 1\nvalue = 34.0"] ;
287 -> 289 ;
290 [label="t-2 <= 40.4\nmse = 4.1\nsamples = 3\nvalue = 26.0"] ;
284 -> 290 ;
291 [label="t-5 <= 49.6\nmse = 0.4\nsamples = 2\nvalue = 27.4"] ;
290 -> 291 ;
292 [label="mse = 0.0\nsamples = 1\nvalue = 28.0"] ;
291 -> 292 ;
293 [label="mse = 0.0\nsamples = 1\nvalue = 26.8"] ;
291 -> 293 ;
294 [label="mse = 0.0\nsamples = 1\nvalue = 23.2"] ;
290 -> 294 ;
295 [label="t-3 <= 59.7\nmse = 5.9\nsamples = 2\nvalue = 38.4"] ;
283 -> 295 ;
296 [label="mse = 0.0\nsamples = 1\nvalue = 40.9"] ;
295 -> 296 ;
297 [label="mse = 0.0\nsamples = 1\nvalue = 36.0"] ;
295 -> 297 ;
298 [label="t-1 <= 28.7\nmse = 38.8\nsamples = 8\nvalue = 44.0"] ;
242 -> 298 ;
299 [label="t-369 <= 86.6\nmse = 15.4\nsamples = 4\nvalue = 49.3"] ;
298 -> 299 ;
300 [label="t-1 <= 25.5\nmse = 4.4\nsamples = 3\nvalue = 51.3"] ;
299 -> 300 ;
301 [label="t-2 <= 47.5\nmse = 1.3\nsamples = 2\nvalue = 52.6"] ;
300 -> 301 ;
302 [label="mse = 0.0\nsamples = 1\nvalue = 51.5"] ;
301 -> 302 ;
303 [label="mse = 0.0\nsamples = 1\nvalue = 53.8"] ;
301 -> 303 ;
304 [label="mse = 0.0\nsamples = 1\nvalue = 48.6"] ;
300 -> 304 ;
305 [label="mse = 0.0\nsamples = 1\nvalue = 43.2"] ;
299 -> 305 ;
306 [label="t-9 <= 38.8\nmse = 6.1\nsamples = 4\nvalue = 38.7"] ;
298 -> 306 ;
307 [label="mse = 0.0\nsamples = 1\nvalue = 42.3"] ;
306 -> 307 ;
308 [label="t-369 <= 36.6\nmse = 2.3\nsamples = 3\nvalue = 37.5"] ;
306 -> 308 ;
309 [label="mse = 0.0\nsamples = 1\nvalue = 35.5"] ;
308 -> 309 ;
310 [label="t-369 <= 42.2\nmse = 0.3\nsamples = 2\nvalue = 38.5"] ;
308 -> 310 ;
311 [label="mse = 0.0\nsamples = 1\nvalue = 38.0"] ;
310 -> 311 ;
312 [label="mse = 0.0\nsamples = 1\nvalue = 39.0"] ;
310 -> 312 ;
313 [label="t-2 <= 30.5\nmse = 203.0\nsamples = 119\nvalue = 38.0"] ;
241 -> 313 ;
314 [label="t-365 <= 26.4\nmse = 215.6\nsamples = 36\nvalue = 43.9"] ;
313 -> 314 ;
315 [label="t-366 <= 11.9\nmse = 41.5\nsamples = 7\nvalue = 32.0"] ;
314 -> 315 ;
316 [label="mse = 0.0\nsamples = 1\nvalue = 45.9"] ;
315 -> 316 ;
317 [label="t-2 <= 24.0\nmse = 11.2\nsamples = 6\nvalue = 29.7"] ;
315 -> 317 ;
318 [label="t-367 <= 33.8\nmse = 0.7\nsamples = 3\nvalue = 26.6"] ;
317 -> 318 ;
319 [label="mse = 0.0\nsamples = 1\nvalue = 25.4"] ;
318 -> 319 ;
320 [label="t-1 <= 24.3\nmse = 0.0\nsamples = 2\nvalue = 27.2"] ;
318 -> 320 ;
321 [label="mse = 0.0\nsamples = 1\nvalue = 27.0"] ;
320 -> 321 ;
322 [label="mse = 0.0\nsamples = 1\nvalue = 27.4"] ;
320 -> 322 ;
323 [label="t-367 <= 36.6\nmse = 1.9\nsamples = 3\nvalue = 32.9"] ;
317 -> 323 ;
324 [label="mse = 0.0\nsamples = 1\nvalue = 31.1"] ;
323 -> 324 ;
325 [label="t-9 <= 70.9\nmse = 0.5\nsamples = 2\nvalue = 33.8"] ;
323 -> 325 ;
326 [label="mse = 0.0\nsamples = 1\nvalue = 33.0"] ;
325 -> 326 ;
327 [label="mse = -0.0\nsamples = 1\nvalue = 34.5"] ;
325 -> 327 ;
328 [label="t-7 <= 34.1\nmse = 215.3\nsamples = 29\nvalue = 46.8"] ;
314 -> 328 ;
329 [label="t-368 <= 47.3\nmse = 180.3\nsamples = 9\nvalue = 55.6"] ;
328 -> 329 ;
330 [label="t-367 <= 38.9\nmse = 73.6\nsamples = 6\nvalue = 63.5"] ;
329 -> 330 ;
331 [label="t-8 <= 34.8\nmse = 3.1\nsamples = 2\nvalue = 74.6"] ;
330 -> 331 ;
332 [label="mse = 0.0\nsamples = 1\nvalue = 72.8"] ;
331 -> 332 ;
333 [label="mse = 0.0\nsamples = 1\nvalue = 76.3"] ;
331 -> 333 ;
334 [label="t-370 <= 46.0\nmse = 15.9\nsamples = 4\nvalue = 57.9"] ;
330 -> 334 ;
335 [label="t-366 <= 44.3\nmse = 5.9\nsamples = 2\nvalue = 61.4"] ;
334 -> 335 ;
336 [label="mse = 0.0\nsamples = 1\nvalue = 59.0"] ;
335 -> 336 ;
337 [label="mse = 0.0\nsamples = 1\nvalue = 63.8"] ;
335 -> 337 ;
338 [label="t-6 <= 44.2\nmse = 1.3\nsamples = 2\nvalue = 54.4"] ;
334 -> 338 ;
339 [label="mse = 0.0\nsamples = 1\nvalue = 55.5"] ;
338 -> 339 ;
340 [label="mse = 0.0\nsamples = 1\nvalue = 53.2"] ;
338 -> 340 ;
341 [label="t-10 <= 66.4\nmse = 24.9\nsamples = 3\nvalue = 39.9"] ;
329 -> 341 ;
342 [label="t-366 <= 86.6\nmse = 0.1\nsamples = 2\nvalue = 43.5"] ;
341 -> 342 ;
343 [label="mse = 0.0\nsamples = 1\nvalue = 43.8"] ;
342 -> 343 ;
344 [label="mse = -0.0\nsamples = 1\nvalue = 43.2"] ;
342 -> 344 ;
345 [label="mse = 0.0\nsamples = 1\nvalue = 32.9"] ;
341 -> 345 ;
346 [label="t-367 <= 70.9\nmse = 180.4\nsamples = 20\nvalue = 42.8"] ;
328 -> 346 ;
347 [label="t-368 <= 36.7\nmse = 85.8\nsamples = 14\nvalue = 37.0"] ;
346 -> 347 ;
348 [label="t-6 <= 56.5\nmse = 38.7\nsamples = 6\nvalue = 29.8"] ;
347 -> 348 ;
349 [label="t-6 <= 40.6\nmse = 18.1\nsamples = 2\nvalue = 37.3"] ;
348 -> 349 ;
350 [label="mse = 0.0\nsamples = 1\nvalue = 33.0"] ;
349 -> 350 ;
351 [label="mse = 0.0\nsamples = 1\nvalue = 41.5"] ;
349 -> 351 ;
352 [label="t-368 <= 34.8\nmse = 6.6\nsamples = 4\nvalue = 26.0"] ;
348 -> 352 ;
353 [label="t-5 <= 65.2\nmse = 0.7\nsamples = 3\nvalue = 24.6"] ;
352 -> 353 ;
354 [label="mse = 0.0\nsamples = 1\nvalue = 23.4"] ;
353 -> 354 ;
355 [label="t-368 <= 32.7\nmse = 0.1\nsamples = 2\nvalue = 25.2"] ;
353 -> 355 ;
356 [label="mse = 0.0\nsamples = 1\nvalue = 25.0"] ;
355 -> 356 ;
357 [label="mse = 0.0\nsamples = 1\nvalue = 25.4"] ;
355 -> 357 ;
358 [label="mse = 0.0\nsamples = 1\nvalue = 30.3"] ;
352 -> 358 ;
359 [label="t-3 <= 28.2\nmse = 52.5\nsamples = 8\nvalue = 42.4"] ;
347 -> 359 ;
360 [label="t-9 <= 47.2\nmse = 54.4\nsamples = 2\nvalue = 33.0"] ;
359 -> 360 ;
361 [label="mse = 0.0\nsamples = 1\nvalue = 40.3"] ;
360 -> 361 ;
362 [label="mse = 0.0\nsamples = 1\nvalue = 25.6"] ;
360 -> 362 ;
363 [label="t-2 <= 27.2\nmse = 12.1\nsamples = 6\nvalue = 45.6"] ;
359 -> 363 ;
364 [label="t-365 <= 51.8\nmse = 2.4\nsamples = 4\nvalue = 43.4"] ;
363 -> 364 ;
365 [label="t-2 <= 23.2\nmse = 0.0\nsamples = 2\nvalue = 44.9"] ;
364 -> 365 ;
366 [label="mse = 0.0\nsamples = 1\nvalue = 45.0"] ;
365 -> 366 ;
367 [label="mse = 0.0\nsamples = 1\nvalue = 44.7"] ;
365 -> 367 ;
368 [label="t-366 <= 82.0\nmse = 0.3\nsamples = 2\nvalue = 41.9"] ;
364 -> 368 ;
369 [label="mse = 0.0\nsamples = 1\nvalue = 41.3"] ;
368 -> 369 ;
370 [label="mse = 0.0\nsamples = 1\nvalue = 42.5"] ;
368 -> 370 ;
371 [label="t-5 <= 45.4\nmse = 2.8\nsamples = 2\nvalue = 50.0"] ;
363 -> 371 ;
372 [label="mse = 0.0\nsamples = 1\nvalue = 48.3"] ;
371 -> 372 ;
373 [label="mse = -0.0\nsamples = 1\nvalue = 51.6"] ;
371 -> 373 ;
374 [label="t-5 <= 108.8\nmse = 137.1\nsamples = 6\nvalue = 56.4"] ;
346 -> 374 ;
375 [label="t-8 <= 73.3\nmse = 46.1\nsamples = 5\nvalue = 60.9"] ;
374 -> 375 ;
376 [label="t-7 <= 83.9\nmse = 0.6\nsamples = 2\nvalue = 69.0"] ;
375 -> 376 ;
377 [label="mse = 0.0\nsamples = 1\nvalue = 69.8"] ;
376 -> 377 ;
378 [label="mse = 0.0\nsamples = 1\nvalue = 68.2"] ;
376 -> 378 ;
379 [label="t-7 <= 84.6\nmse = 2.2\nsamples = 3\nvalue = 55.4"] ;
375 -> 379 ;
380 [label="t-3 <= 65.2\nmse = 0.2\nsamples = 2\nvalue = 54.4"] ;
379 -> 380 ;
381 [label="mse = 0.0\nsamples = 1\nvalue = 54.8"] ;
380 -> 381 ;
382 [label="mse = -0.0\nsamples = 1\nvalue = 54.0"] ;
380 -> 382 ;
383 [label="mse = 0.0\nsamples = 1\nvalue = 57.5"] ;
379 -> 383 ;
384 [label="mse = 0.0\nsamples = 1\nvalue = 34.2"] ;
374 -> 384 ;
385 [label="t-9 <= 41.3\nmse = 175.7\nsamples = 83\nvalue = 35.4"] ;
313 -> 385 ;
386 [label="t-9 <= 32.4\nmse = 275.8\nsamples = 30\nvalue = 40.3"] ;
385 -> 386 ;
387 [label="t-1 <= 33.2\nmse = 74.7\nsamples = 20\nvalue = 32.2"] ;
386 -> 387 ;
388 [label="t-5 <= 57.7\nmse = 41.7\nsamples = 19\nvalue = 30.9"] ;
387 -> 388 ;
389 [label="t-2 <= 46.8\nmse = 31.0\nsamples = 15\nvalue = 28.9"] ;
388 -> 389 ;
390 [label="t-3 <= 54.2\nmse = 19.5\nsamples = 12\nvalue = 30.8"] ;
389 -> 390 ;
391 [label="t-367 <= 73.1\nmse = 14.7\nsamples = 7\nvalue = 28.4"] ;
390 -> 391 ;
392 [label="t-370 <= 38.1\nmse = 6.1\nsamples = 5\nvalue = 26.5"] ;
391 -> 392 ;
393 [label="t-3 <= 25.8\nmse = 0.5\nsamples = 3\nvalue = 28.4"] ;
392 -> 393 ;
394 [label="mse = 0.0\nsamples = 1\nvalue = 29.4"] ;
393 -> 394 ;
395 [label="t-4 <= 47.2\nmse = 0.0\nsamples = 2\nvalue = 27.9"] ;
393 -> 395 ;
396 [label="mse = 0.0\nsamples = 1\nvalue = 27.8"] ;
395 -> 396 ;
397 [label="mse = 0.0\nsamples = 1\nvalue = 28.0"] ;
395 -> 397 ;
398 [label="t-7 <= 22.2\nmse = 0.8\nsamples = 2\nvalue = 23.6"] ;
392 -> 398 ;
399 [label="mse = 0.0\nsamples = 1\nvalue = 22.7"] ;
398 -> 399 ;
400 [label="mse = -0.0\nsamples = 1\nvalue = 24.5"] ;
398 -> 400 ;
401 [label="t-370 <= 43.5\nmse = 3.4\nsamples = 2\nvalue = 33.2"] ;
391 -> 401 ;
402 [label="mse = 0.0\nsamples = 1\nvalue = 31.4"] ;
401 -> 402 ;
403 [label="mse = -0.0\nsamples = 1\nvalue = 35.1"] ;
401 -> 403 ;
404 [label="t-5 <= 37.4\nmse = 6.7\nsamples = 5\nvalue = 34.2"] ;
390 -> 404 ;
405 [label="t-2 <= 38.0\nmse = 1.2\nsamples = 2\nvalue = 31.4"] ;
404 -> 405 ;
406 [label="mse = 0.0\nsamples = 1\nvalue = 32.5"] ;
405 -> 406 ;
407 [label="mse = 0.0\nsamples = 1\nvalue = 30.3"] ;
405 -> 407 ;
408 [label="t-5 <= 44.4\nmse = 1.6\nsamples = 3\nvalue = 36.1"] ;
404 -> 408 ;
409 [label="t-6 <= 28.4\nmse = 0.4\nsamples = 2\nvalue = 36.9"] ;
408 -> 409 ;
410 [label="mse = 0.0\nsamples = 1\nvalue = 37.5"] ;
409 -> 410 ;
411 [label="mse = -0.0\nsamples = 1\nvalue = 36.2"] ;
409 -> 411 ;
412 [label="mse = -0.0\nsamples = 1\nvalue = 34.4"] ;
408 -> 412 ;
413 [label="t-1 <= 28.9\nmse = 0.0\nsamples = 3\nvalue = 21.0"] ;
389 -> 413 ;
414 [label="t-368 <= 43.6\nmse = 0.0\nsamples = 2\nvalue = 20.9"] ;
413 -> 414 ;
415 [label="mse = 0.0\nsamples = 1\nvalue = 20.8"] ;
414 -> 415 ;
416 [label="mse = 0.0\nsamples = 1\nvalue = 21.0"] ;
414 -> 416 ;
417 [label="mse = -0.0\nsamples = 1\nvalue = 21.2"] ;
413 -> 417 ;
418 [label="t-10 <= 42.0\nmse = 9.1\nsamples = 4\nvalue = 38.4"] ;
388 -> 418 ;
419 [label="t-7 <= 28.5\nmse = 0.2\nsamples = 3\nvalue = 36.7"] ;
418 -> 419 ;
420 [label="mse = 0.0\nsamples = 1\nvalue = 37.3"] ;
419 -> 420 ;
421 [label="mse = -0.0\nsamples = 2\nvalue = 36.4"] ;
419 -> 421 ;
422 [label="mse = 0.0\nsamples = 1\nvalue = 43.6"] ;
418 -> 422 ;
423 [label="mse = 0.0\nsamples = 1\nvalue = 58.0"] ;
387 -> 423 ;
424 [label="t-365 <= 31.4\nmse = 285.0\nsamples = 10\nvalue = 56.5"] ;
386 -> 424 ;
425 [label="t-4 <= 33.4\nmse = 203.7\nsamples = 4\nvalue = 70.4"] ;
424 -> 425 ;
426 [label="t-1 <= 29.5\nmse = 80.3\nsamples = 2\nvalue = 57.8"] ;
425 -> 426 ;
427 [label="mse = 0.0\nsamples = 1\nvalue = 66.7"] ;
426 -> 427 ;
428 [label="mse = 0.0\nsamples = 1\nvalue = 48.8"] ;
426 -> 428 ;
429 [label="t-3 <= 50.0\nmse = 5.3\nsamples = 2\nvalue = 83.1"] ;
425 -> 429 ;
430 [label="mse = 0.0\nsamples = 1\nvalue = 80.8"] ;
429 -> 430 ;
431 [label="mse = -0.0\nsamples = 1\nvalue = 85.4"] ;
429 -> 431 ;
432 [label="t-370 <= 78.9\nmse = 123.9\nsamples = 6\nvalue = 47.2"] ;
424 -> 432 ;
433 [label="t-4 <= 34.5\nmse = 54.7\nsamples = 5\nvalue = 51.2"] ;
432 -> 433 ;
434 [label="mse = 0.0\nsamples = 1\nvalue = 64.7"] ;
433 -> 434 ;
435 [label="t-8 <= 64.7\nmse = 11.8\nsamples = 4\nvalue = 47.8"] ;
433 -> 435 ;
436 [label="t-3 <= 87.5\nmse = 3.2\nsamples = 3\nvalue = 49.6"] ;
435 -> 436 ;
437 [label="t-10 <= 55.4\nmse = 0.5\nsamples = 2\nvalue = 48.4"] ;
436 -> 437 ;
438 [label="mse = 0.0\nsamples = 1\nvalue = 47.7"] ;
437 -> 438 ;
439 [label="mse = -0.0\nsamples = 1\nvalue = 49.1"] ;
437 -> 439 ;
440 [label="mse = 0.0\nsamples = 1\nvalue = 52.0"] ;
436 -> 440 ;
441 [label="mse = 0.0\nsamples = 1\nvalue = 42.5"] ;
435 -> 441 ;
442 [label="mse = 0.0\nsamples = 1\nvalue = 27.5"] ;
432 -> 442 ;
443 [label="t-10 <= 98.3\nmse = 97.8\nsamples = 53\nvalue = 32.7"] ;
385 -> 443 ;
444 [label="t-4 <= 54.6\nmse = 78.6\nsamples = 46\nvalue = 31.2"] ;
443 -> 444 ;
445 [label="t-368 <= 49.3\nmse = 68.8\nsamples = 24\nvalue = 34.4"] ;
444 -> 445 ;
446 [label="t-7 <= 25.3\nmse = 33.9\nsamples = 15\nvalue = 37.9"] ;
445 -> 446 ;
447 [label="t-3 <= 29.0\nmse = 0.2\nsamples = 2\nvalue = 46.9"] ;
446 -> 447 ;
448 [label="mse = 0.0\nsamples = 1\nvalue = 46.5"] ;
447 -> 448 ;
449 [label="mse = 0.0\nsamples = 1\nvalue = 47.3"] ;
447 -> 449 ;
450 [label="t-367 <= 45.8\nmse = 24.6\nsamples = 13\nvalue = 36.5"] ;
446 -> 450 ;
451 [label="t-3 <= 44.1\nmse = 14.1\nsamples = 4\nvalue = 31.5"] ;
450 -> 451 ;
452 [label="t-10 <= 46.7\nmse = 3.8\nsamples = 3\nvalue = 29.5"] ;
451 -> 452 ;
453 [label="mse = 0.0\nsamples = 1\nvalue = 26.8"] ;
452 -> 453 ;
454 [label="t-4 <= 31.5\nmse = 0.0\nsamples = 2\nvalue = 30.9"] ;
452 -> 454 ;
455 [label="mse = 0.0\nsamples = 1\nvalue = 31.1"] ;
454 -> 455 ;
456 [label="mse = 0.0\nsamples = 1\nvalue = 30.7"] ;
454 -> 456 ;
457 [label="mse = -0.0\nsamples = 1\nvalue = 37.3"] ;
451 -> 457 ;
458 [label="t-9 <= 45.8\nmse = 12.8\nsamples = 9\nvalue = 38.8"] ;
450 -> 458 ;
459 [label="t-369 <= 36.0\nmse = 10.0\nsamples = 3\nvalue = 34.9"] ;
458 -> 459 ;
460 [label="t-368 <= 42.9\nmse = 2.0\nsamples = 2\nvalue = 32.8"] ;
459 -> 460 ;
461 [label="mse = 0.0\nsamples = 1\nvalue = 31.4"] ;
460 -> 461 ;
462 [label="mse = 0.0\nsamples = 1\nvalue = 34.2"] ;
460 -> 462 ;
463 [label="mse = -0.0\nsamples = 1\nvalue = 39.0"] ;
459 -> 463 ;
464 [label="t-369 <= 48.4\nmse = 2.7\nsamples = 6\nvalue = 40.8"] ;
458 -> 464 ;
465 [label="t-368 <= 35.6\nmse = 0.9\nsamples = 2\nvalue = 42.9"] ;
464 -> 465 ;
466 [label="mse = 0.0\nsamples = 1\nvalue = 42.0"] ;
465 -> 466 ;
467 [label="mse = 0.0\nsamples = 1\nvalue = 43.9"] ;
465 -> 467 ;
468 [label="t-6 <= 59.9\nmse = 0.1\nsamples = 4\nvalue = 39.7"] ;
464 -> 468 ;
469 [label="t-370 <= 54.0\nmse = 0.0\nsamples = 2\nvalue = 39.4"] ;
468 -> 469 ;
470 [label="mse = 0.0\nsamples = 1\nvalue = 39.5"] ;
469 -> 470 ;
471 [label="mse = 0.0\nsamples = 1\nvalue = 39.4"] ;
469 -> 471 ;
472 [label="t-370 <= 72.4\nmse = 0.0\nsamples = 2\nvalue = 39.9"] ;
468 -> 472 ;
473 [label="mse = 0.0\nsamples = 1\nvalue = 39.9"] ;
472 -> 473 ;
474 [label="mse = 0.0\nsamples = 1\nvalue = 39.8"] ;
472 -> 474 ;
475 [label="t-3 <= 40.1\nmse = 73.3\nsamples = 9\nvalue = 28.6"] ;
445 -> 475 ;
476 [label="t-7 <= 34.8\nmse = 13.5\nsamples = 5\nvalue = 21.6"] ;
475 -> 476 ;
477 [label="mse = 0.0\nsamples = 1\nvalue = 28.2"] ;
476 -> 477 ;
478 [label="t-8 <= 77.7\nmse = 3.2\nsamples = 4\nvalue = 19.9"] ;
476 -> 478 ;
479 [label="t-6 <= 41.7\nmse = 0.0\nsamples = 2\nvalue = 18.1"] ;
478 -> 479 ;
480 [label="mse = 0.0\nsamples = 1\nvalue = 18.0"] ;
479 -> 480 ;
481 [label="mse = 0.0\nsamples = 1\nvalue = 18.3"] ;
479 -> 481 ;
482 [label="t-368 <= 144.1\nmse = 0.2\nsamples = 2\nvalue = 21.7"] ;
478 -> 482 ;
483 [label="mse = 0.0\nsamples = 1\nvalue = 22.1"] ;
482 -> 483 ;
484 [label="mse = -0.0\nsamples = 1\nvalue = 21.2"] ;
482 -> 484 ;
485 [label="t-8 <= 93.2\nmse = 6.8\nsamples = 4\nvalue = 37.5"] ;
475 -> 485 ;
486 [label="t-1 <= 27.3\nmse = 1.7\nsamples = 3\nvalue = 38.9"] ;
485 -> 486 ;
487 [label="t-369 <= 73.5\nmse = 0.6\nsamples = 2\nvalue = 38.0"] ;
486 -> 487 ;
488 [label="mse = 0.0\nsamples = 1\nvalue = 38.8"] ;
487 -> 488 ;
489 [label="mse = -0.0\nsamples = 1\nvalue = 37.3"] ;
487 -> 489 ;
490 [label="mse = 0.0\nsamples = 1\nvalue = 40.5"] ;
486 -> 490 ;
491 [label="mse = -0.0\nsamples = 1\nvalue = 33.4"] ;
485 -> 491 ;
492 [label="t-9 <= 45.8\nmse = 64.5\nsamples = 22\nvalue = 27.6"] ;
444 -> 492 ;
493 [label="t-4 <= 72.3\nmse = 25.6\nsamples = 2\nvalue = 46.1"] ;
492 -> 493 ;
494 [label="mse = 0.0\nsamples = 1\nvalue = 41.1"] ;
493 -> 494 ;
495 [label="mse = 0.0\nsamples = 1\nvalue = 51.2"] ;
493 -> 495 ;
496 [label="t-1 <= 31.6\nmse = 30.5\nsamples = 20\nvalue = 25.7"] ;
492 -> 496 ;
497 [label="t-365 <= 36.7\nmse = 17.6\nsamples = 16\nvalue = 24.0"] ;
496 -> 497 ;
498 [label="t-368 <= 62.0\nmse = 1.8\nsamples = 2\nvalue = 16.0"] ;
497 -> 498 ;
499 [label="mse = 0.0\nsamples = 1\nvalue = 17.3"] ;
498 -> 499 ;
500 [label="mse = -0.0\nsamples = 1\nvalue = 14.6"] ;
498 -> 500 ;
501 [label="t-369 <= 47.5\nmse = 9.3\nsamples = 14\nvalue = 25.1"] ;
497 -> 501 ;
502 [label="t-6 <= 62.7\nmse = 6.8\nsamples = 7\nvalue = 23.2"] ;
501 -> 502 ;
503 [label="t-365 <= 52.8\nmse = 2.6\nsamples = 6\nvalue = 22.3"] ;
502 -> 503 ;
504 [label="t-4 <= 67.5\nmse = 0.7\nsamples = 4\nvalue = 23.3"] ;
503 -> 504 ;
505 [label="mse = 0.0\nsamples = 1\nvalue = 24.7"] ;
504 -> 505 ;
506 [label="t-6 <= 33.7\nmse = 0.2\nsamples = 3\nvalue = 22.9"] ;
504 -> 506 ;
507 [label="mse = 0.0\nsamples = 1\nvalue = 22.3"] ;
506 -> 507 ;
508 [label="t-368 <= 32.9\nmse = 0.0\nsamples = 2\nvalue = 23.2"] ;
506 -> 508 ;
509 [label="mse = 0.0\nsamples = 1\nvalue = 23.0"] ;
508 -> 509 ;
510 [label="mse = 0.0\nsamples = 1\nvalue = 23.4"] ;
508 -> 510 ;
511 [label="t-366 <= 81.9\nmse = 0.0\nsamples = 2\nvalue = 20.2"] ;
503 -> 511 ;
512 [label="mse = 0.0\nsamples = 1\nvalue = 20.2"] ;
511 -> 512 ;
513 [label="mse = -0.0\nsamples = 1\nvalue = 20.2"] ;
511 -> 513 ;
514 [label="mse = 0.0\nsamples = 1\nvalue = 28.4"] ;
502 -> 514 ;
515 [label="t-370 <= 113.8\nmse = 4.3\nsamples = 7\nvalue = 27.1"] ;
501 -> 515 ;
516 [label="t-2 <= 66.9\nmse = 0.3\nsamples = 6\nvalue = 27.9"] ;
515 -> 516 ;
517 [label="t-369 <= 86.3\nmse = 0.1\nsamples = 5\nvalue = 27.7"] ;
516 -> 517 ;
518 [label="t-367 <= 49.6\nmse = 0.0\nsamples = 4\nvalue = 27.8"] ;
517 -> 518 ;
519 [label="t-3 <= 40.7\nmse = 0.0\nsamples = 2\nvalue = 27.7"] ;
518 -> 519 ;
520 [label="mse = 0.0\nsamples = 1\nvalue = 27.7"] ;
519 -> 520 ;
521 [label="mse = 0.0\nsamples = 1\nvalue = 27.7"] ;
519 -> 521 ;
522 [label="t-7 <= 98.1\nmse = 0.0\nsamples = 2\nvalue = 28.0"] ;
518 -> 522 ;
523 [label="mse = 0.0\nsamples = 1\nvalue = 28.0"] ;
522 -> 523 ;
524 [label="mse = 0.0\nsamples = 1\nvalue = 28.0"] ;
522 -> 524 ;
525 [label="mse = 0.0\nsamples = 1\nvalue = 27.1"] ;
517 -> 525 ;
526 [label="mse = 0.0\nsamples = 1\nvalue = 28.9"] ;
516 -> 526 ;
527 [label="mse = 0.0\nsamples = 1\nvalue = 22.1"] ;
515 -> 527 ;
528 [label="t-366 <= 63.6\nmse = 21.5\nsamples = 4\nvalue = 32.7"] ;
496 -> 528 ;
529 [label="t-7 <= 20.0\nmse = 5.3\nsamples = 2\nvalue = 28.4"] ;
528 -> 529 ;
530 [label="mse = 0.0\nsamples = 1\nvalue = 30.7"] ;
529 -> 530 ;
531 [label="mse = -0.0\nsamples = 1\nvalue = 26.1"] ;
529 -> 531 ;
532 [label="t-368 <= 53.7\nmse = 0.7\nsamples = 2\nvalue = 37.0"] ;
528 -> 532 ;
533 [label="mse = 0.0\nsamples = 1\nvalue = 36.1"] ;
532 -> 533 ;
534 [label="mse = 0.0\nsamples = 1\nvalue = 37.8"] ;
532 -> 534 ;
535 [label="t-2 <= 42.5\nmse = 110.7\nsamples = 7\nvalue = 42.6"] ;
443 -> 535 ;
536 [label="t-369 <= 36.5\nmse = 28.1\nsamples = 3\nvalue = 31.8"] ;
535 -> 536 ;
537 [label="mse = 0.0\nsamples = 1\nvalue = 25.0"] ;
536 -> 537 ;
538 [label="t-369 <= 50.0\nmse = 8.4\nsamples = 2\nvalue = 35.1"] ;
536 -> 538 ;
539 [label="mse = 0.0\nsamples = 1\nvalue = 38.0"] ;
538 -> 539 ;
540 [label="mse = 0.0\nsamples = 1\nvalue = 32.2"] ;
538 -> 540 ;
541 [label="t-367 <= 54.3\nmse = 17.8\nsamples = 4\nvalue = 50.8"] ;
535 -> 541 ;
542 [label="t-369 <= 34.6\nmse = 0.3\nsamples = 2\nvalue = 46.8"] ;
541 -> 542 ;
543 [label="mse = 0.0\nsamples = 1\nvalue = 47.4"] ;
542 -> 543 ;
544 [label="mse = 0.0\nsamples = 1\nvalue = 46.2"] ;
542 -> 544 ;
545 [label="t-6 <= 47.8\nmse = 3.8\nsamples = 2\nvalue = 54.7"] ;
541 -> 545 ;
546 [label="mse = 0.0\nsamples = 1\nvalue = 56.7"] ;
545 -> 546 ;
547 [label="mse = 0.0\nsamples = 1\nvalue = 52.8"] ;
545 -> 547 ;
548 [label="t-366 <= 116.5\nmse = 27.3\nsamples = 2\nvalue = 90.4"] ;
142 -> 548 ;
549 [label="mse = 0.0\nsamples = 1\nvalue = 85.1"] ;
548 -> 549 ;
550 [label="mse = 0.0\nsamples = 1\nvalue = 95.6"] ;
548 -> 550 ;
551 [label="t-367 <= 173.8\nmse = 496.2\nsamples = 280\nvalue = 47.9"] ;
1 -> 551 ;
552 [label="t-6 <= 204.2\nmse = 414.5\nsamples = 276\nvalue = 47.2"] ;
551 -> 552 ;
553 [label="t-365 <= 28.5\nmse = 385.8\nsamples = 275\nvalue = 46.8"] ;
552 -> 553 ;
554 [label="t-1 <= 34.3\nmse = 235.0\nsamples = 57\nvalue = 38.1"] ;
553 -> 554 ;
555 [label="t-6 <= 37.2\nmse = 758.5\nsamples = 2\nvalue = 67.7"] ;
554 -> 555 ;
556 [label="mse = 0.0\nsamples = 1\nvalue = 95.2"] ;
555 -> 556 ;
557 [label="mse = -0.0\nsamples = 1\nvalue = 40.2"] ;
555 -> 557 ;
558 [label="t-369 <= 28.4\nmse = 183.0\nsamples = 55\nvalue = 37.0"] ;
554 -> 558 ;
559 [label="t-5 <= 19.6\nmse = 102.0\nsamples = 18\nvalue = 28.6"] ;
558 -> 559 ;
560 [label="t-365 <= 22.4\nmse = 84.3\nsamples = 7\nvalue = 36.4"] ;
559 -> 560 ;
561 [label="t-365 <= 9.9\nmse = 4.1\nsamples = 5\nvalue = 30.7"] ;
560 -> 561 ;
562 [label="mse = 0.0\nsamples = 1\nvalue = 27.0"] ;
561 -> 562 ;
563 [label="t-367 <= 10.2\nmse = 1.0\nsamples = 4\nvalue = 31.6"] ;
561 -> 563 ;
564 [label="mse = 0.0\nsamples = 1\nvalue = 29.9"] ;
563 -> 564 ;
565 [label="t-8 <= 32.5\nmse = 0.1\nsamples = 3\nvalue = 32.2"] ;
563 -> 565 ;
566 [label="t-10 <= 42.4\nmse = 0.0\nsamples = 2\nvalue = 32.0"] ;
565 -> 566 ;
567 [label="mse = 0.0\nsamples = 1\nvalue = 32.2"] ;
566 -> 567 ;
568 [label="mse = -0.0\nsamples = 1\nvalue = 31.8"] ;
566 -> 568 ;
569 [label="mse = 0.0\nsamples = 1\nvalue = 32.5"] ;
565 -> 569 ;
570 [label="t-368 <= 10.8\nmse = 1.0\nsamples = 2\nvalue = 50.6"] ;
560 -> 570 ;
571 [label="mse = 0.0\nsamples = 1\nvalue = 51.6"] ;
570 -> 571 ;
572 [label="mse = 0.0\nsamples = 1\nvalue = 49.6"] ;
570 -> 572 ;
573 [label="t-2 <= 52.3\nmse = 50.5\nsamples = 11\nvalue = 23.7"] ;
559 -> 573 ;
574 [label="t-1 <= 42.4\nmse = 38.9\nsamples = 9\nvalue = 21.7"] ;
573 -> 574 ;
575 [label="t-6 <= 27.6\nmse = 14.4\nsamples = 5\nvalue = 26.1"] ;
574 -> 575 ;
576 [label="t-8 <= 52.9\nmse = 3.0\nsamples = 2\nvalue = 30.2"] ;
575 -> 576 ;
577 [label="mse = 0.0\nsamples = 1\nvalue = 28.5"] ;
576 -> 577 ;
578 [label="mse = 0.0\nsamples = 1\nvalue = 31.9"] ;
576 -> 578 ;
579 [label="t-4 <= 22.1\nmse = 3.1\nsamples = 3\nvalue = 23.3"] ;
575 -> 579 ;
580 [label="mse = 0.0\nsamples = 1\nvalue = 25.7"] ;
579 -> 580 ;
581 [label="t-4 <= 32.5\nmse = 0.5\nsamples = 2\nvalue = 22.1"] ;
579 -> 581 ;
582 [label="mse = 0.0\nsamples = 1\nvalue = 22.8"] ;
581 -> 582 ;
583 [label="mse = 0.0\nsamples = 1\nvalue = 21.4"] ;
581 -> 583 ;
584 [label="t-367 <= 33.2\nmse = 14.9\nsamples = 4\nvalue = 16.1"] ;
574 -> 584 ;
585 [label="t-8 <= 15.1\nmse = 6.2\nsamples = 2\nvalue = 12.7"] ;
584 -> 585 ;
586 [label="mse = 0.0\nsamples = 1\nvalue = 10.2"] ;
585 -> 586 ;
587 [label="mse = -0.0\nsamples = 1\nvalue = 15.2"] ;
585 -> 587 ;
588 [label="t-8 <= 30.4\nmse = 0.0\nsamples = 2\nvalue = 19.6"] ;
584 -> 588 ;
589 [label="mse = 0.0\nsamples = 1\nvalue = 19.6"] ;
588 -> 589 ;
590 [label="mse = 0.0\nsamples = 1\nvalue = 19.6"] ;
588 -> 590 ;
591 [label="t-6 <= 40.9\nmse = 0.7\nsamples = 2\nvalue = 32.8"] ;
573 -> 591 ;
592 [label="mse = 0.0\nsamples = 1\nvalue = 33.6"] ;
591 -> 592 ;
593 [label="mse = 0.0\nsamples = 1\nvalue = 32.0"] ;
591 -> 593 ;
594 [label="t-367 <= 25.2\nmse = 171.1\nsamples = 37\nvalue = 41.1"] ;
558 -> 594 ;
595 [label="t-367 <= 24.7\nmse = 196.6\nsamples = 12\nvalue = 50.4"] ;
594 -> 595 ;
596 [label="t-368 <= 20.1\nmse = 56.3\nsamples = 11\nvalue = 46.8"] ;
595 -> 596 ;
597 [label="t-369 <= 45.7\nmse = 12.9\nsamples = 4\nvalue = 40.2"] ;
596 -> 597 ;
598 [label="t-369 <= 29.0\nmse = 1.5\nsamples = 3\nvalue = 42.1"] ;
597 -> 598 ;
599 [label="mse = 0.0\nsamples = 1\nvalue = 40.6"] ;
598 -> 599 ;
600 [label="t-369 <= 32.7\nmse = 0.5\nsamples = 2\nvalue = 42.9"] ;
598 -> 600 ;
601 [label="mse = 0.0\nsamples = 1\nvalue = 42.2"] ;
600 -> 601 ;
602 [label="mse = -0.0\nsamples = 1\nvalue = 43.6"] ;
600 -> 602 ;
603 [label="mse = 0.0\nsamples = 1\nvalue = 34.2"] ;
597 -> 603 ;
604 [label="t-7 <= 51.9\nmse = 41.8\nsamples = 7\nvalue = 50.6"] ;
596 -> 604 ;
605 [label="t-5 <= 31.3\nmse = 7.9\nsamples = 5\nvalue = 54.1"] ;
604 -> 605 ;
606 [label="t-9 <= 50.6\nmse = 2.2\nsamples = 2\nvalue = 57.0"] ;
605 -> 606 ;
607 [label="mse = 0.0\nsamples = 1\nvalue = 55.5"] ;
606 -> 607 ;
608 [label="mse = 0.0\nsamples = 1\nvalue = 58.5"] ;
606 -> 608 ;
609 [label="t-7 <= 47.1\nmse = 2.1\nsamples = 3\nvalue = 52.1"] ;
605 -> 609 ;
610 [label="t-10 <= 67.0\nmse = 0.6\nsamples = 2\nvalue = 53.0"] ;
609 -> 610 ;
611 [label="mse = 0.0\nsamples = 1\nvalue = 53.8"] ;
610 -> 611 ;
612 [label="mse = -0.0\nsamples = 1\nvalue = 52.2"] ;
610 -> 612 ;
613 [label="mse = 0.0\nsamples = 1\nvalue = 50.2"] ;
609 -> 613 ;
614 [label="t-2 <= 46.1\nmse = 19.3\nsamples = 2\nvalue = 41.8"] ;
604 -> 614 ;
615 [label="mse = 0.0\nsamples = 1\nvalue = 37.4"] ;
614 -> 615 ;
616 [label="mse = -0.0\nsamples = 1\nvalue = 46.2"] ;
614 -> 616 ;
617 [label="mse = -0.0\nsamples = 1\nvalue = 90.3"] ;
595 -> 617 ;
618 [label="t-1 <= 35.2\nmse = 97.9\nsamples = 25\nvalue = 36.7"] ;
594 -> 618 ;
619 [label="mse = 0.0\nsamples = 1\nvalue = 63.2"] ;
618 -> 619 ;
620 [label="t-4 <= 38.6\nmse = 71.5\nsamples = 24\nvalue = 35.6"] ;
618 -> 620 ;
621 [label="t-3 <= 39.4\nmse = 60.8\nsamples = 8\nvalue = 30.4"] ;
620 -> 621 ;
622 [label="t-365 <= 25.3\nmse = 38.4\nsamples = 3\nvalue = 38.8"] ;
621 -> 622 ;
623 [label="t-1 <= 42.0\nmse = 4.3\nsamples = 2\nvalue = 34.6"] ;
622 -> 623 ;
624 [label="mse = 0.0\nsamples = 1\nvalue = 36.7"] ;
623 -> 624 ;
625 [label="mse = -0.0\nsamples = 1\nvalue = 32.5"] ;
623 -> 625 ;
626 [label="mse = 0.0\nsamples = 1\nvalue = 47.2"] ;
622 -> 626 ;
627 [label="t-3 <= 51.6\nmse = 6.4\nsamples = 5\nvalue = 25.4"] ;
621 -> 627 ;
628 [label="t-2 <= 49.1\nmse = 1.1\nsamples = 3\nvalue = 27.3"] ;
627 -> 628 ;
629 [label="mse = 0.0\nsamples = 1\nvalue = 25.9"] ;
628 -> 629 ;
630 [label="t-1 <= 41.3\nmse = 0.2\nsamples = 2\nvalue = 28.0"] ;
628 -> 630 ;
631 [label="mse = 0.0\nsamples = 1\nvalue = 27.5"] ;
630 -> 631 ;
632 [label="mse = 0.0\nsamples = 1\nvalue = 28.4"] ;
630 -> 632 ;
633 [label="t-366 <= 47.2\nmse = 0.3\nsamples = 2\nvalue = 22.5"] ;
627 -> 633 ;
634 [label="mse = 0.0\nsamples = 1\nvalue = 23.0"] ;
633 -> 634 ;
635 [label="mse = 0.0\nsamples = 1\nvalue = 21.9"] ;
633 -> 635 ;
636 [label="t-4 <= 47.7\nmse = 56.7\nsamples = 16\nvalue = 38.2"] ;
620 -> 636 ;
637 [label="t-7 <= 59.7\nmse = 21.4\nsamples = 7\nvalue = 44.3"] ;
636 -> 637 ;
638 [label="t-366 <= 28.9\nmse = 9.1\nsamples = 4\nvalue = 41.3"] ;
637 -> 638 ;
639 [label="mse = 0.0\nsamples = 1\nvalue = 36.3"] ;
638 -> 639 ;
640 [label="t-8 <= 24.6\nmse = 1.3\nsamples = 3\nvalue = 42.9"] ;
638 -> 640 ;
641 [label="mse = 0.0\nsamples = 1\nvalue = 41.3"] ;
640 -> 641 ;
642 [label="t-4 <= 42.8\nmse = 0.2\nsamples = 2\nvalue = 43.7"] ;
640 -> 642 ;
643 [label="mse = 0.0\nsamples = 1\nvalue = 44.1"] ;
642 -> 643 ;
644 [label="mse = -0.0\nsamples = 1\nvalue = 43.3"] ;
642 -> 644 ;
645 [label="t-7 <= 68.0\nmse = 8.8\nsamples = 3\nvalue = 48.4"] ;
637 -> 645 ;
646 [label="mse = 0.0\nsamples = 1\nvalue = 52.6"] ;
645 -> 646 ;
647 [label="t-7 <= 71.0\nmse = 0.0\nsamples = 2\nvalue = 46.3"] ;
645 -> 647 ;
648 [label="mse = 0.0\nsamples = 1\nvalue = 46.2"] ;
647 -> 648 ;
649 [label="mse = -0.0\nsamples = 1\nvalue = 46.4"] ;
647 -> 649 ;
650 [label="t-1 <= 47.0\nmse = 31.9\nsamples = 9\nvalue = 33.4"] ;
636 -> 650 ;
651 [label="t-3 <= 48.1\nmse = 6.2\nsamples = 6\nvalue = 30.1"] ;
650 -> 651 ;
652 [label="t-4 <= 58.5\nmse = 0.8\nsamples = 3\nvalue = 32.4"] ;
651 -> 652 ;
653 [label="t-9 <= 31.1\nmse = 0.1\nsamples = 2\nvalue = 33.0"] ;
652 -> 653 ;
654 [label="mse = 0.0\nsamples = 1\nvalue = 32.6"] ;
653 -> 654 ;
655 [label="mse = 0.0\nsamples = 1\nvalue = 33.3"] ;
653 -> 655 ;
656 [label="mse = -0.0\nsamples = 1\nvalue = 31.2"] ;
652 -> 656 ;
657 [label="t-367 <= 84.2\nmse = 1.1\nsamples = 3\nvalue = 27.8"] ;
651 -> 657 ;
658 [label="mse = 0.0\nsamples = 1\nvalue = 26.4"] ;
657 -> 658 ;
659 [label="t-5 <= 64.4\nmse = 0.2\nsamples = 2\nvalue = 28.5"] ;
657 -> 659 ;
660 [label="mse = 0.0\nsamples = 1\nvalue = 28.0"] ;
659 -> 660 ;
661 [label="mse = 0.0\nsamples = 1\nvalue = 29.0"] ;
659 -> 661 ;
662 [label="t-369 <= 60.5\nmse = 17.8\nsamples = 3\nvalue = 40.0"] ;
650 -> 662 ;
663 [label="t-1 <= 50.4\nmse = 0.0\nsamples = 2\nvalue = 37.0"] ;
662 -> 663 ;
664 [label="mse = 0.0\nsamples = 1\nvalue = 37.1"] ;
663 -> 664 ;
665 [label="mse = 0.0\nsamples = 1\nvalue = 36.9"] ;
663 -> 665 ;
666 [label="mse = 0.0\nsamples = 1\nvalue = 46.0"] ;
662 -> 666 ;
667 [label="t-366 <= 163.1\nmse = 400.1\nsamples = 218\nvalue = 49.1"] ;
553 -> 667 ;
668 [label="t-5 <= 44.6\nmse = 350.9\nsamples = 213\nvalue = 48.4"] ;
667 -> 668 ;
669 [label="t-1 <= 49.5\nmse = 245.5\nsamples = 101\nvalue = 44.4"] ;
668 -> 669 ;
670 [label="t-10 <= 21.5\nmse = 209.7\nsamples = 91\nvalue = 42.9"] ;
669 -> 670 ;
671 [label="t-7 <= 32.2\nmse = 71.6\nsamples = 9\nvalue = 30.1"] ;
670 -> 671 ;
672 [label="t-370 <= 34.1\nmse = 27.6\nsamples = 4\nvalue = 38.3"] ;
671 -> 672 ;
673 [label="t-1 <= 39.1\nmse = 0.5\nsamples = 3\nvalue = 41.3"] ;
672 -> 673 ;
674 [label="mse = 0.0\nsamples = 1\nvalue = 40.4"] ;
673 -> 674 ;
675 [label="t-367 <= 34.4\nmse = 0.1\nsamples = 2\nvalue = 41.8"] ;
673 -> 675 ;
676 [label="mse = 0.0\nsamples = 1\nvalue = 41.5"] ;
675 -> 676 ;
677 [label="mse = -0.0\nsamples = 1\nvalue = 42.0"] ;
675 -> 677 ;
678 [label="mse = 0.0\nsamples = 1\nvalue = 29.2"] ;
672 -> 678 ;
679 [label="t-366 <= 42.5\nmse = 10.5\nsamples = 5\nvalue = 23.6"] ;
671 -> 679 ;
680 [label="t-8 <= 47.3\nmse = 0.2\nsamples = 2\nvalue = 19.7"] ;
679 -> 680 ;
681 [label="mse = 0.0\nsamples = 1\nvalue = 19.2"] ;
680 -> 681 ;
682 [label="mse = 0.0\nsamples = 1\nvalue = 20.2"] ;
680 -> 682 ;
683 [label="t-370 <= 104.3\nmse = 0.8\nsamples = 3\nvalue = 26.1"] ;
679 -> 683 ;
684 [label="t-8 <= 75.5\nmse = 0.1\nsamples = 2\nvalue = 25.5"] ;
683 -> 684 ;
685 [label="mse = 0.0\nsamples = 1\nvalue = 25.8"] ;
684 -> 685 ;
686 [label="mse = 0.0\nsamples = 1\nvalue = 25.3"] ;
684 -> 686 ;
687 [label="mse = -0.0\nsamples = 1\nvalue = 27.3"] ;
683 -> 687 ;
688 [label="t-8 <= 25.3\nmse = 204.9\nsamples = 82\nvalue = 44.3"] ;
670 -> 688 ;
689 [label="t-8 <= 21.5\nmse = 216.5\nsamples = 9\nvalue = 55.9"] ;
688 -> 689 ;
690 [label="t-9 <= 25.3\nmse = 78.8\nsamples = 2\nvalue = 36.0"] ;
689 -> 690 ;
691 [label="mse = 0.0\nsamples = 1\nvalue = 44.9"] ;
690 -> 691 ;
692 [label="mse = -0.0\nsamples = 1\nvalue = 27.2"] ;
690 -> 692 ;
693 [label="t-365 <= 41.9\nmse = 110.2\nsamples = 7\nvalue = 61.6"] ;
689 -> 693 ;
694 [label="t-4 <= 23.3\nmse = 33.3\nsamples = 2\nvalue = 74.2"] ;
693 -> 694 ;
695 [label="mse = 0.0\nsamples = 1\nvalue = 80.0"] ;
694 -> 695 ;
696 [label="mse = 0.0\nsamples = 1\nvalue = 68.5"] ;
694 -> 696 ;
697 [label="t-2 <= 30.8\nmse = 52.2\nsamples = 5\nvalue = 56.6"] ;
693 -> 697 ;
698 [label="mse = 0.0\nsamples = 1\nvalue = 44.1"] ;
697 -> 698 ;
699 [label="t-4 <= 31.1\nmse = 16.6\nsamples = 4\nvalue = 59.7"] ;
697 -> 699 ;
700 [label="t-1 <= 43.8\nmse = 0.4\nsamples = 2\nvalue = 56.1"] ;
699 -> 700 ;
701 [label="mse = 0.0\nsamples = 1\nvalue = 56.7"] ;
700 -> 701 ;
702 [label="mse = -0.0\nsamples = 1\nvalue = 55.5"] ;
700 -> 702 ;
703 [label="t-1 <= 45.7\nmse = 6.7\nsamples = 2\nvalue = 63.3"] ;
699 -> 703 ;
704 [label="mse = 0.0\nsamples = 1\nvalue = 65.9"] ;
703 -> 704 ;
705 [label="mse = 0.0\nsamples = 1\nvalue = 60.8"] ;
703 -> 705 ;
706 [label="t-9 <= 62.3\nmse = 184.7\nsamples = 73\nvalue = 42.9"] ;
688 -> 706 ;
707 [label="t-367 <= 85.2\nmse = 145.2\nsamples = 50\nvalue = 40.0"] ;
706 -> 707 ;
708 [label="t-365 <= 46.9\nmse = 140.8\nsamples = 46\nvalue = 41.2"] ;
707 -> 708 ;
709 [label="t-7 <= 95.2\nmse = 105.0\nsamples = 20\nvalue = 36.0"] ;
708 -> 709 ;
710 [label="t-10 <= 30.8\nmse = 72.5\nsamples = 19\nvalue = 37.3"] ;
709 -> 710 ;
711 [label="t-2 <= 50.5\nmse = 1.1\nsamples = 3\nvalue = 48.7"] ;
710 -> 711 ;
712 [label="t-366 <= 65.4\nmse = 0.1\nsamples = 2\nvalue = 49.4"] ;
711 -> 712 ;
713 [label="mse = 0.0\nsamples = 1\nvalue = 49.8"] ;
712 -> 713 ;
714 [label="mse = 0.0\nsamples = 1\nvalue = 49.0"] ;
712 -> 714 ;
715 [label="mse = 0.0\nsamples = 1\nvalue = 47.2"] ;
711 -> 715 ;
716 [label="t-7 <= 25.9\nmse = 57.4\nsamples = 16\nvalue = 35.2"] ;
710 -> 716 ;
717 [label="t-5 <= 37.4\nmse = 29.8\nsamples = 4\nvalue = 43.9"] ;
716 -> 717 ;
718 [label="t-6 <= 34.6\nmse = 2.3\nsamples = 3\nvalue = 40.9"] ;
717 -> 718 ;
719 [label="t-368 <= 39.8\nmse = 0.5\nsamples = 2\nvalue = 41.9"] ;
718 -> 719 ;
720 [label="mse = 0.0\nsamples = 1\nvalue = 41.2"] ;
719 -> 720 ;
721 [label="mse = 0.0\nsamples = 1\nvalue = 42.6"] ;
719 -> 721 ;
722 [label="mse = -0.0\nsamples = 1\nvalue = 38.9"] ;
718 -> 722 ;
723 [label="mse = 0.0\nsamples = 1\nvalue = 53.1"] ;
717 -> 723 ;
724 [label="t-365 <= 33.5\nmse = 32.6\nsamples = 12\nvalue = 32.3"] ;
716 -> 724 ;
725 [label="t-366 <= 36.2\nmse = 9.3\nsamples = 4\nvalue = 37.8"] ;
724 -> 725 ;
726 [label="t-365 <= 29.6\nmse = 1.9\nsamples = 2\nvalue = 40.6"] ;
725 -> 726 ;
727 [label="mse = 0.0\nsamples = 1\nvalue = 39.2"] ;
726 -> 727 ;
728 [label="mse = 0.0\nsamples = 1\nvalue = 42.0"] ;
726 -> 728 ;
729 [label="t-365 <= 30.4\nmse = 0.2\nsamples = 2\nvalue = 34.9"] ;
725 -> 729 ;
730 [label="mse = 0.0\nsamples = 1\nvalue = 34.4"] ;
729 -> 730 ;
731 [label="mse = 0.0\nsamples = 1\nvalue = 35.4"] ;
729 -> 731 ;
732 [label="t-3 <= 26.3\nmse = 22.0\nsamples = 8\nvalue = 29.6"] ;
724 -> 732 ;
733 [label="mse = 0.0\nsamples = 1\nvalue = 20.8"] ;
732 -> 733 ;
734 [label="t-3 <= 75.8\nmse = 12.6\nsamples = 7\nvalue = 30.8"] ;
732 -> 734 ;
735 [label="t-1 <= 48.4\nmse = 4.1\nsamples = 6\nvalue = 32.1"] ;
734 -> 735 ;
736 [label="t-368 <= 71.2\nmse = 1.3\nsamples = 5\nvalue = 31.3"] ;
735 -> 736 ;
737 [label="t-10 <= 38.8\nmse = 0.3\nsamples = 3\nvalue = 30.4"] ;
736 -> 737 ;
738 [label="mse = 0.0\nsamples = 1\nvalue = 31.2"] ;
737 -> 738 ;
739 [label="t-7 <= 51.3\nmse = 0.1\nsamples = 2\nvalue = 30.1"] ;
737 -> 739 ;
740 [label="mse = 0.0\nsamples = 1\nvalue = 30.3"] ;
739 -> 740 ;
741 [label="mse = 0.0\nsamples = 1\nvalue = 29.8"] ;
739 -> 741 ;
742 [label="t-366 <= 26.1\nmse = 0.2\nsamples = 2\nvalue = 32.5"] ;
736 -> 742 ;
743 [label="mse = 0.0\nsamples = 1\nvalue = 33.0"] ;
742 -> 743 ;
744 [label="mse = 0.0\nsamples = 1\nvalue = 32.1"] ;
742 -> 744 ;
745 [label="mse = -0.0\nsamples = 1\nvalue = 35.9"] ;
735 -> 745 ;
746 [label="mse = -0.0\nsamples = 1\nvalue = 23.4"] ;
734 -> 746 ;
747 [label="mse = -0.0\nsamples = 1\nvalue = 9.8"] ;
709 -> 747 ;
748 [label="t-9 <= 55.0\nmse = 131.5\nsamples = 26\nvalue = 45.2"] ;
708 -> 748 ;
749 [label="t-370 <= 96.5\nmse = 110.2\nsamples = 18\nvalue = 49.6"] ;
748 -> 749 ;
750 [label="t-369 <= 83.8\nmse = 70.0\nsamples = 16\nvalue = 47.3"] ;
749 -> 750 ;
751 [label="t-10 <= 30.3\nmse = 47.3\nsamples = 13\nvalue = 49.7"] ;
750 -> 751 ;
752 [label="t-370 <= 25.2\nmse = 18.6\nsamples = 2\nvalue = 60.3"] ;
751 -> 752 ;
753 [label="mse = 0.0\nsamples = 1\nvalue = 56.0"] ;
752 -> 753 ;
754 [label="mse = 0.0\nsamples = 1\nvalue = 64.6"] ;
752 -> 754 ;
755 [label="t-8 <= 54.1\nmse = 28.7\nsamples = 11\nvalue = 47.8"] ;
751 -> 755 ;
756 [label="t-4 <= 69.3\nmse = 21.0\nsamples = 6\nvalue = 50.9"] ;
755 -> 756 ;
757 [label="t-367 <= 60.4\nmse = 12.9\nsamples = 5\nvalue = 52.4"] ;
756 -> 757 ;
758 [label="t-1 <= 43.3\nmse = 1.3\nsamples = 2\nvalue = 56.0"] ;
757 -> 758 ;
759 [label="mse = 0.0\nsamples = 1\nvalue = 57.2"] ;
758 -> 759 ;
760 [label="mse = -0.0\nsamples = 1\nvalue = 54.9"] ;
758 -> 760 ;
761 [label="t-7 <= 37.2\nmse = 5.7\nsamples = 3\nvalue = 49.9"] ;
757 -> 761 ;
762 [label="mse = 0.0\nsamples = 1\nvalue = 46.8"] ;
761 -> 762 ;
763 [label="t-368 <= 31.2\nmse = 1.4\nsamples = 2\nvalue = 51.4"] ;
761 -> 763 ;
764 [label="mse = 0.0\nsamples = 1\nvalue = 52.6"] ;
763 -> 764 ;
765 [label="mse = 0.0\nsamples = 1\nvalue = 50.2"] ;
763 -> 765 ;
766 [label="mse = 0.0\nsamples = 1\nvalue = 43.8"] ;
756 -> 766 ;
767 [label="t-3 <= 40.1\nmse = 12.5\nsamples = 5\nvalue = 44.1"] ;
755 -> 767 ;
768 [label="t-365 <= 48.3\nmse = 0.3\nsamples = 2\nvalue = 39.9"] ;
767 -> 768 ;
769 [label="mse = 0.0\nsamples = 1\nvalue = 39.3"] ;
768 -> 769 ;
770 [label="mse = -0.0\nsamples = 1\nvalue = 40.5"] ;
768 -> 770 ;
771 [label="t-4 <= 66.6\nmse = 1.0\nsamples = 3\nvalue = 46.9"] ;
767 -> 771 ;
772 [label="t-365 <= 75.7\nmse = 0.3\nsamples = 2\nvalue = 47.5"] ;
771 -> 772 ;
773 [label="mse = 0.0\nsamples = 1\nvalue = 47.0"] ;
772 -> 773 ;
774 [label="mse = 0.0\nsamples = 1\nvalue = 48.1"] ;
772 -> 774 ;
775 [label="mse = 0.0\nsamples = 1\nvalue = 45.6"] ;
771 -> 775 ;
776 [label="t-367 <= 41.3\nmse = 27.5\nsamples = 3\nvalue = 36.6"] ;
750 -> 776 ;
777 [label="t-2 <= 39.6\nmse = 2.1\nsamples = 2\nvalue = 33.0"] ;
776 -> 777 ;
778 [label="mse = 0.0\nsamples = 1\nvalue = 34.4"] ;
777 -> 778 ;
779 [label="mse = -0.0\nsamples = 1\nvalue = 31.5"] ;
777 -> 779 ;
780 [label="mse = -0.0\nsamples = 1\nvalue = 43.8"] ;
776 -> 780 ;
781 [label="t-9 <= 46.5\nmse = 35.3\nsamples = 2\nvalue = 68.4"] ;
749 -> 781 ;
782 [label="mse = 0.0\nsamples = 1\nvalue = 74.3"] ;
781 -> 782 ;
783 [label="mse = 0.0\nsamples = 1\nvalue = 62.5"] ;
781 -> 783 ;
784 [label="t-8 <= 40.8\nmse = 35.3\nsamples = 8\nvalue = 35.2"] ;
748 -> 784 ;
785 [label="mse = 0.0\nsamples = 1\nvalue = 21.0"] ;
784 -> 785 ;
786 [label="t-2 <= 43.8\nmse = 7.2\nsamples = 7\nvalue = 37.2"] ;
784 -> 786 ;
787 [label="t-4 <= 32.2\nmse = 0.2\nsamples = 3\nvalue = 39.9"] ;
786 -> 787 ;
788 [label="mse = 0.0\nsamples = 1\nvalue = 39.3"] ;
787 -> 788 ;
789 [label="t-365 <= 60.8\nmse = 0.0\nsamples = 2\nvalue = 40.1"] ;
787 -> 789 ;
790 [label="mse = 0.0\nsamples = 1\nvalue = 40.0"] ;
789 -> 790 ;
791 [label="mse = 0.0\nsamples = 1\nvalue = 40.3"] ;
789 -> 791 ;
792 [label="t-5 <= 40.0\nmse = 3.3\nsamples = 4\nvalue = 35.2"] ;
786 -> 792 ;
793 [label="t-367 <= 38.9\nmse = 1.0\nsamples = 3\nvalue = 34.3"] ;
792 -> 793 ;
794 [label="mse = 0.0\nsamples = 1\nvalue = 33.0"] ;
793 -> 794 ;
795 [label="t-370 <= 111.1\nmse = 0.3\nsamples = 2\nvalue = 35.0"] ;
793 -> 795 ;
796 [label="mse = 0.0\nsamples = 1\nvalue = 35.5"] ;
795 -> 796 ;
797 [label="mse = 0.0\nsamples = 1\nvalue = 34.5"] ;
795 -> 797 ;
798 [label="mse = 0.0\nsamples = 1\nvalue = 38.0"] ;
792 -> 798 ;
799 [label="t-3 <= 46.8\nmse = 10.9\nsamples = 4\nvalue = 27.0"] ;
707 -> 799 ;
800 [label="t-2 <= 55.8\nmse = 0.5\nsamples = 2\nvalue = 23.8"] ;
799 -> 800 ;
801 [label="mse = 0.0\nsamples = 1\nvalue = 23.1"] ;
800 -> 801 ;
802 [label="mse = -0.0\nsamples = 1\nvalue = 24.5"] ;
800 -> 802 ;
803 [label="t-5 <= 28.1\nmse = 0.6\nsamples = 2\nvalue = 30.2"] ;
799 -> 803 ;
804 [label="mse = 0.0\nsamples = 1\nvalue = 31.0"] ;
803 -> 804 ;
805 [label="mse = 0.0\nsamples = 1\nvalue = 29.4"] ;
803 -> 805 ;
806 [label="t-10 <= 51.0\nmse = 215.5\nsamples = 23\nvalue = 49.0"] ;
706 -> 806 ;
807 [label="t-4 <= 33.4\nmse = 38.1\nsamples = 7\nvalue = 35.8"] ;
806 -> 807 ;
808 [label="t-7 <= 59.1\nmse = 4.5\nsamples = 2\nvalue = 44.0"] ;
807 -> 808 ;
809 [label="mse = 0.0\nsamples = 1\nvalue = 46.2"] ;
808 -> 809 ;
810 [label="mse = 0.0\nsamples = 1\nvalue = 41.9"] ;
808 -> 810 ;
811 [label="t-9 <= 76.2\nmse = 13.4\nsamples = 5\nvalue = 32.5"] ;
807 -> 811 ;
812 [label="t-5 <= 26.7\nmse = 6.2\nsamples = 3\nvalue = 34.9"] ;
811 -> 812 ;
813 [label="mse = 0.0\nsamples = 1\nvalue = 38.5"] ;
812 -> 813 ;
814 [label="t-8 <= 54.8\nmse = 0.0\nsamples = 2\nvalue = 33.2"] ;
812 -> 814 ;
815 [label="mse = 0.0\nsamples = 1\nvalue = 33.3"] ;
814 -> 815 ;
816 [label="mse = -0.0\nsamples = 1\nvalue = 33.1"] ;
814 -> 816 ;
817 [label="t-7 <= 43.5\nmse = 1.6\nsamples = 2\nvalue = 28.8"] ;
811 -> 817 ;
818 [label="mse = 0.0\nsamples = 1\nvalue = 30.0"] ;
817 -> 818 ;
819 [label="mse = 0.0\nsamples = 1\nvalue = 27.5"] ;
817 -> 819 ;
820 [label="t-2 <= 47.0\nmse = 183.3\nsamples = 16\nvalue = 54.8"] ;
806 -> 820 ;
821 [label="t-9 <= 86.9\nmse = 89.2\nsamples = 10\nvalue = 62.8"] ;
820 -> 821 ;
822 [label="t-365 <= 48.6\nmse = 11.1\nsamples = 6\nvalue = 69.5"] ;
821 -> 822 ;
823 [label="t-4 <= 93.5\nmse = 1.4\nsamples = 4\nvalue = 67.3"] ;
822 -> 823 ;
824 [label="t-3 <= 48.6\nmse = 0.4\nsamples = 3\nvalue = 67.9"] ;
823 -> 824 ;
825 [label="mse = 0.0\nsamples = 1\nvalue = 68.8"] ;
824 -> 825 ;
826 [label="t-370 <= 61.7\nmse = 0.0\nsamples = 2\nvalue = 67.5"] ;
824 -> 826 ;
827 [label="mse = 0.0\nsamples = 1\nvalue = 67.3"] ;
826 -> 827 ;
828 [label="mse = 0.0\nsamples = 1\nvalue = 67.8"] ;
826 -> 828 ;
829 [label="mse = 0.0\nsamples = 1\nvalue = 65.5"] ;
823 -> 829 ;
830 [label="t-368 <= 49.7\nmse = 1.9\nsamples = 2\nvalue = 73.9"] ;
822 -> 830 ;
831 [label="mse = 0.0\nsamples = 1\nvalue = 75.2"] ;
830 -> 831 ;
832 [label="mse = 0.0\nsamples = 1\nvalue = 72.5"] ;
830 -> 832 ;
833 [label="t-365 <= 77.8\nmse = 35.3\nsamples = 4\nvalue = 52.6"] ;
821 -> 833 ;
834 [label="t-369 <= 92.3\nmse = 1.7\nsamples = 2\nvalue = 46.8"] ;
833 -> 834 ;
835 [label="mse = 0.0\nsamples = 1\nvalue = 48.1"] ;
834 -> 835 ;
836 [label="mse = -0.0\nsamples = 1\nvalue = 45.5"] ;
834 -> 836 ;
837 [label="t-5 <= 25.1\nmse = 0.3\nsamples = 2\nvalue = 58.5"] ;
833 -> 837 ;
838 [label="mse = 0.0\nsamples = 1\nvalue = 58.0"] ;
837 -> 838 ;
839 [label="mse = 0.0\nsamples = 1\nvalue = 59.0"] ;
837 -> 839 ;
840 [label="t-365 <= 46.8\nmse = 57.1\nsamples = 6\nvalue = 41.5"] ;
820 -> 840 ;
841 [label="mse = 0.0\nsamples = 1\nvalue = 28.4"] ;
840 -> 841 ;
842 [label="t-365 <= 68.3\nmse = 27.3\nsamples = 5\nvalue = 44.1"] ;
840 -> 842 ;
843 [label="mse = 0.0\nsamples = 1\nvalue = 54.2"] ;
842 -> 843 ;
844 [label="t-6 <= 38.3\nmse = 1.9\nsamples = 4\nvalue = 41.6"] ;
842 -> 844 ;
845 [label="mse = 0.0\nsamples = 1\nvalue = 43.7"] ;
844 -> 845 ;
846 [label="t-5 <= 33.0\nmse = 0.4\nsamples = 3\nvalue = 40.8"] ;
844 -> 846 ;
847 [label="t-368 <= 86.2\nmse = 0.1\nsamples = 2\nvalue = 40.4"] ;
846 -> 847 ;
848 [label="mse = 0.0\nsamples = 1\nvalue = 40.0"] ;
847 -> 848 ;
849 [label="mse = 0.0\nsamples = 1\nvalue = 40.8"] ;
847 -> 849 ;
850 [label="mse = -0.0\nsamples = 1\nvalue = 41.7"] ;
846 -> 850 ;
851 [label="t-10 <= 45.4\nmse = 361.1\nsamples = 10\nvalue = 58.2"] ;
669 -> 851 ;
852 [label="t-8 <= 41.9\nmse = 59.4\nsamples = 5\nvalue = 42.9"] ;
851 -> 852 ;
853 [label="t-365 <= 44.7\nmse = 21.6\nsamples = 2\nvalue = 51.6"] ;
852 -> 853 ;
854 [label="mse = 0.0\nsamples = 1\nvalue = 56.2"] ;
853 -> 854 ;
855 [label="mse = 0.0\nsamples = 1\nvalue = 46.9"] ;
853 -> 855 ;
856 [label="t-7 <= 28.6\nmse = 1.9\nsamples = 3\nvalue = 37.2"] ;
852 -> 856 ;
857 [label="mse = 0.0\nsamples = 1\nvalue = 35.2"] ;
856 -> 857 ;
858 [label="t-7 <= 41.8\nmse = 0.1\nsamples = 2\nvalue = 38.1"] ;
856 -> 858 ;
859 [label="mse = 0.0\nsamples = 1\nvalue = 38.5"] ;
858 -> 859 ;
860 [label="mse = -0.0\nsamples = 1\nvalue = 37.8"] ;
858 -> 860 ;
861 [label="t-10 <= 48.9\nmse = 198.6\nsamples = 5\nvalue = 73.4"] ;
851 -> 861 ;
862 [label="t-367 <= 77.4\nmse = 86.3\nsamples = 2\nvalue = 88.4"] ;
861 -> 862 ;
863 [label="mse = 0.0\nsamples = 1\nvalue = 97.7"] ;
862 -> 863 ;
864 [label="mse = -0.0\nsamples = 1\nvalue = 79.1"] ;
862 -> 864 ;
865 [label="t-5 <= 37.4\nmse = 24.2\nsamples = 3\nvalue = 63.4"] ;
861 -> 865 ;
866 [label="mse = 0.0\nsamples = 1\nvalue = 56.5"] ;
865 -> 866 ;
867 [label="t-367 <= 33.8\nmse = 0.4\nsamples = 2\nvalue = 66.9"] ;
865 -> 867 ;
868 [label="mse = 0.0\nsamples = 1\nvalue = 66.2"] ;
867 -> 868 ;
869 [label="mse = 0.0\nsamples = 1\nvalue = 67.5"] ;
867 -> 869 ;
870 [label="t-370 <= 90.7\nmse = 419.2\nsamples = 112\nvalue = 51.9"] ;
668 -> 870 ;
871 [label="t-2 <= 23.2\nmse = 351.8\nsamples = 95\nvalue = 49.7"] ;
870 -> 871 ;
872 [label="t-368 <= 35.4\nmse = 505.4\nsamples = 5\nvalue = 75.3"] ;
871 -> 872 ;
873 [label="t-4 <= 69.0\nmse = 58.4\nsamples = 3\nvalue = 59.1"] ;
872 -> 873 ;
874 [label="t-369 <= 30.7\nmse = 1.1\nsamples = 2\nvalue = 64.4"] ;
873 -> 874 ;
875 [label="mse = 0.0\nsamples = 1\nvalue = 65.5"] ;
874 -> 875 ;
876 [label="mse = 0.0\nsamples = 1\nvalue = 63.4"] ;
874 -> 876 ;
877 [label="mse = 0.0\nsamples = 1\nvalue = 48.3"] ;
873 -> 877 ;
878 [label="t-5 <= 71.8\nmse = 189.1\nsamples = 2\nvalue = 99.6"] ;
872 -> 878 ;
879 [label="mse = 0.0\nsamples = 1\nvalue = 113.4"] ;
878 -> 879 ;
880 [label="mse = 0.0\nsamples = 1\nvalue = 85.9"] ;
878 -> 880 ;
881 [label="t-2 <= 69.4\nmse = 305.0\nsamples = 90\nvalue = 48.3"] ;
871 -> 881 ;
882 [label="t-3 <= 29.3\nmse = 306.7\nsamples = 79\nvalue = 50.2"] ;
881 -> 882 ;
883 [label="t-365 <= 31.4\nmse = 171.5\nsamples = 9\nvalue = 35.3"] ;
882 -> 883 ;
884 [label="mse = 0.0\nsamples = 1\nvalue = 63.3"] ;
883 -> 884 ;
885 [label="t-3 <= 21.1\nmse = 82.5\nsamples = 8\nvalue = 31.8"] ;
883 -> 885 ;
886 [label="mse = 0.0\nsamples = 1\nvalue = 52.5"] ;
885 -> 886 ;
887 [label="t-7 <= 39.7\nmse = 24.0\nsamples = 7\nvalue = 28.8"] ;
885 -> 887 ;
888 [label="t-2 <= 41.0\nmse = 1.6\nsamples = 2\nvalue = 22.1"] ;
887 -> 888 ;
889 [label="mse = 0.0\nsamples = 1\nvalue = 23.3"] ;
888 -> 889 ;
890 [label="mse = 0.0\nsamples = 1\nvalue = 20.8"] ;
888 -> 890 ;
891 [label="t-2 <= 41.2\nmse = 7.5\nsamples = 5\nvalue = 31.5"] ;
887 -> 891 ;
892 [label="t-3 <= 26.1\nmse = 3.2\nsamples = 3\nvalue = 29.6"] ;
891 -> 892 ;
893 [label="t-368 <= 37.0\nmse = 0.1\nsamples = 2\nvalue = 30.9"] ;
892 -> 893 ;
894 [label="mse = 0.0\nsamples = 1\nvalue = 30.5"] ;
893 -> 894 ;
895 [label="mse = -0.0\nsamples = 1\nvalue = 31.2"] ;
893 -> 895 ;
896 [label="mse = 0.0\nsamples = 1\nvalue = 27.1"] ;
892 -> 896 ;
897 [label="t-6 <= 132.7\nmse = 0.0\nsamples = 2\nvalue = 34.4"] ;
891 -> 897 ;
898 [label="mse = 0.0\nsamples = 1\nvalue = 34.3"] ;
897 -> 898 ;
899 [label="mse = -0.0\nsamples = 1\nvalue = 34.5"] ;
897 -> 899 ;
900 [label="t-365 <= 65.3\nmse = 292.0\nsamples = 70\nvalue = 52.1"] ;
882 -> 900 ;
901 [label="t-369 <= 96.7\nmse = 207.2\nsamples = 50\nvalue = 48.6"] ;
900 -> 901 ;
902 [label="t-2 <= 35.9\nmse = 183.7\nsamples = 48\nvalue = 47.5"] ;
901 -> 902 ;
903 [label="t-7 <= 47.5\nmse = 94.0\nsamples = 17\nvalue = 40.5"] ;
902 -> 903 ;
904 [label="t-8 <= 24.0\nmse = 11.2\nsamples = 4\nvalue = 29.8"] ;
903 -> 904 ;
905 [label="mse = 0.0\nsamples = 1\nvalue = 35.6"] ;
904 -> 905 ;
906 [label="t-365 <= 57.6\nmse = 0.1\nsamples = 3\nvalue = 27.9"] ;
904 -> 906 ;
907 [label="t-3 <= 41.0\nmse = 0.0\nsamples = 2\nvalue = 27.7"] ;
906 -> 907 ;
908 [label="mse = 0.0\nsamples = 1\nvalue = 27.8"] ;
907 -> 908 ;
909 [label="mse = 0.0\nsamples = 1\nvalue = 27.6"] ;
907 -> 909 ;
910 [label="mse = 0.0\nsamples = 1\nvalue = 28.3"] ;
906 -> 910 ;
911 [label="t-369 <= 31.4\nmse = 73.3\nsamples = 13\nvalue = 43.8"] ;
903 -> 911 ;
912 [label="t-369 <= 29.2\nmse = 4.2\nsamples = 2\nvalue = 58.1"] ;
911 -> 912 ;
913 [label="mse = 0.0\nsamples = 1\nvalue = 60.2"] ;
912 -> 913 ;
914 [label="mse = 0.0\nsamples = 1\nvalue = 56.1"] ;
912 -> 914 ;
915 [label="t-2 <= 26.8\nmse = 42.0\nsamples = 11\nvalue = 41.2"] ;
911 -> 915 ;
916 [label="t-10 <= 50.4\nmse = 5.0\nsamples = 3\nvalue = 48.5"] ;
915 -> 916 ;
917 [label="t-366 <= 34.1\nmse = 1.8\nsamples = 2\nvalue = 47.1"] ;
916 -> 917 ;
918 [label="mse = 0.0\nsamples = 1\nvalue = 45.8"] ;
917 -> 918 ;
919 [label="mse = -0.0\nsamples = 1\nvalue = 48.5"] ;
917 -> 919 ;
920 [label="mse = 0.0\nsamples = 1\nvalue = 51.3"] ;
916 -> 920 ;
921 [label="t-365 <= 54.4\nmse = 28.4\nsamples = 8\nvalue = 38.5"] ;
915 -> 921 ;
922 [label="t-5 <= 48.3\nmse = 12.2\nsamples = 4\nvalue = 42.4"] ;
921 -> 922 ;
923 [label="mse = 0.0\nsamples = 1\nvalue = 36.3"] ;
922 -> 923 ;
924 [label="t-6 <= 77.3\nmse = 0.1\nsamples = 3\nvalue = 44.4"] ;
922 -> 924 ;
925 [label="mse = 0.0\nsamples = 1\nvalue = 44.0"] ;
924 -> 925 ;
926 [label="t-7 <= 60.8\nmse = 0.0\nsamples = 2\nvalue = 44.6"] ;
924 -> 926 ;
927 [label="mse = 0.0\nsamples = 1\nvalue = 44.5"] ;
926 -> 927 ;
928 [label="mse = -0.0\nsamples = 1\nvalue = 44.7"] ;
926 -> 928 ;
929 [label="t-370 <= 75.7\nmse = 14.7\nsamples = 4\nvalue = 34.6"] ;
921 -> 929 ;
930 [label="t-2 <= 29.4\nmse = 0.6\nsamples = 3\nvalue = 32.5"] ;
929 -> 930 ;
931 [label="t-370 <= 45.8\nmse = 0.0\nsamples = 2\nvalue = 31.9"] ;
930 -> 931 ;
932 [label="mse = 0.0\nsamples = 1\nvalue = 31.9"] ;
931 -> 932 ;
933 [label="mse = 0.0\nsamples = 1\nvalue = 31.9"] ;
931 -> 933 ;
934 [label="mse = 0.0\nsamples = 1\nvalue = 33.6"] ;
930 -> 934 ;
935 [label="mse = -0.0\nsamples = 1\nvalue = 41.2"] ;
929 -> 935 ;
936 [label="t-2 <= 47.9\nmse = 191.5\nsamples = 31\nvalue = 51.4"] ;
902 -> 936 ;
937 [label="t-1 <= 52.5\nmse = 167.3\nsamples = 17\nvalue = 57.0"] ;
936 -> 937 ;
938 [label="t-368 <= 69.1\nmse = 124.8\nsamples = 16\nvalue = 55.3"] ;
937 -> 938 ;
939 [label="t-4 <= 88.1\nmse = 102.3\nsamples = 13\nvalue = 58.3"] ;
938 -> 939 ;
940 [label="t-10 <= 53.0\nmse = 44.8\nsamples = 11\nvalue = 61.6"] ;
939 -> 940 ;
941 [label="t-3 <= 49.9\nmse = 19.1\nsamples = 7\nvalue = 65.5"] ;
940 -> 941 ;
942 [label="t-367 <= 61.7\nmse = 7.4\nsamples = 3\nvalue = 69.4"] ;
941 -> 942 ;
943 [label="t-7 <= 40.5\nmse = 0.1\nsamples = 2\nvalue = 71.3"] ;
942 -> 943 ;
944 [label="mse = 0.0\nsamples = 1\nvalue = 71.0"] ;
943 -> 944 ;
945 [label="mse = 0.0\nsamples = 1\nvalue = 71.6"] ;
943 -> 945 ;
946 [label="mse = -0.0\nsamples = 1\nvalue = 65.5"] ;
942 -> 946 ;
947 [label="t-367 <= 30.6\nmse = 8.1\nsamples = 4\nvalue = 62.6"] ;
941 -> 947 ;
948 [label="mse = 0.0\nsamples = 1\nvalue = 57.9"] ;
947 -> 948 ;
949 [label="t-4 <= 61.2\nmse = 1.0\nsamples = 3\nvalue = 64.1"] ;
947 -> 949 ;
950 [label="t-9 <= 25.2\nmse = 0.3\nsamples = 2\nvalue = 63.5"] ;
949 -> 950 ;
951 [label="mse = 0.0\nsamples = 1\nvalue = 64.1"] ;
950 -> 951 ;
952 [label="mse = -0.0\nsamples = 1\nvalue = 62.9"] ;
950 -> 952 ;
953 [label="mse = 0.0\nsamples = 1\nvalue = 65.4"] ;
949 -> 953 ;
954 [label="t-3 <= 52.3\nmse = 16.1\nsamples = 4\nvalue = 54.7"] ;
940 -> 954 ;
955 [label="mse = 0.0\nsamples = 1\nvalue = 48.1"] ;
954 -> 955 ;
956 [label="t-7 <= 44.1\nmse = 1.9\nsamples = 3\nvalue = 56.9"] ;
954 -> 956 ;
957 [label="t-7 <= 30.1\nmse = 0.0\nsamples = 2\nvalue = 56.0"] ;
956 -> 957 ;
958 [label="mse = 0.0\nsamples = 1\nvalue = 56.1"] ;
957 -> 958 ;
959 [label="mse = 0.0\nsamples = 1\nvalue = 55.8"] ;
957 -> 959 ;
960 [label="mse = 0.0\nsamples = 1\nvalue = 58.9"] ;
956 -> 960 ;
961 [label="t-9 <= 40.2\nmse = 41.7\nsamples = 2\nvalue = 40.5"] ;
939 -> 961 ;
962 [label="mse = 0.0\nsamples = 1\nvalue = 34.0"] ;
961 -> 962 ;
963 [label="mse = -0.0\nsamples = 1\nvalue = 46.9"] ;
961 -> 963 ;
964 [label="t-3 <= 48.2\nmse = 7.6\nsamples = 3\nvalue = 42.1"] ;
938 -> 964 ;
965 [label="mse = 0.0\nsamples = 1\nvalue = 45.6"] ;
964 -> 965 ;
966 [label="t-4 <= 51.5\nmse = 2.2\nsamples = 2\nvalue = 40.3"] ;
964 -> 966 ;
967 [label="mse = 0.0\nsamples = 1\nvalue = 41.8"] ;
966 -> 967 ;
968 [label="mse = 0.0\nsamples = 1\nvalue = 38.8"] ;
966 -> 968 ;
969 [label="mse = 0.0\nsamples = 1\nvalue = 85.3"] ;
937 -> 969 ;
970 [label="t-6 <= 63.1\nmse = 134.1\nsamples = 14\nvalue = 44.5"] ;
936 -> 970 ;
971 [label="t-2 <= 60.8\nmse = 82.5\nsamples = 10\nvalue = 39.2"] ;
970 -> 971 ;
972 [label="t-2 <= 48.2\nmse = 42.3\nsamples = 7\nvalue = 34.6"] ;
971 -> 972 ;
973 [label="mse = 0.0\nsamples = 1\nvalue = 20.9"] ;
972 -> 973 ;
974 [label="t-4 <= 47.7\nmse = 12.7\nsamples = 6\nvalue = 36.9"] ;
972 -> 974 ;
975 [label="mse = 0.0\nsamples = 1\nvalue = 31.0"] ;
974 -> 975 ;
976 [label="t-370 <= 39.2\nmse = 6.9\nsamples = 5\nvalue = 38.1"] ;
974 -> 976 ;
977 [label="t-366 <= 40.6\nmse = 0.0\nsamples = 2\nvalue = 40.9"] ;
976 -> 977 ;
978 [label="mse = 0.0\nsamples = 1\nvalue = 41.1"] ;
977 -> 978 ;
979 [label="mse = 0.0\nsamples = 1\nvalue = 40.8"] ;
977 -> 979 ;
980 [label="t-10 <= 26.2\nmse = 2.6\nsamples = 3\nvalue = 36.2"] ;
976 -> 980 ;
981 [label="mse = 0.0\nsamples = 1\nvalue = 34.2"] ;
980 -> 981 ;
982 [label="t-5 <= 69.7\nmse = 0.9\nsamples = 2\nvalue = 37.2"] ;
980 -> 982 ;
983 [label="mse = 0.0\nsamples = 1\nvalue = 38.2"] ;
982 -> 983 ;
984 [label="mse = -0.0\nsamples = 1\nvalue = 36.2"] ;
982 -> 984 ;
985 [label="t-2 <= 65.0\nmse = 12.3\nsamples = 3\nvalue = 49.9"] ;
971 -> 985 ;
986 [label="mse = 0.0\nsamples = 1\nvalue = 45.0"] ;
985 -> 986 ;
987 [label="t-370 <= 39.9\nmse = 0.0\nsamples = 2\nvalue = 52.4"] ;
985 -> 987 ;
988 [label="mse = 0.0\nsamples = 1\nvalue = 52.6"] ;
987 -> 988 ;
989 [label="mse = 0.0\nsamples = 1\nvalue = 52.2"] ;
987 -> 989 ;
990 [label="t-370 <= 75.9\nmse = 24.0\nsamples = 4\nvalue = 57.5"] ;
970 -> 990 ;
991 [label="t-5 <= 80.5\nmse = 7.1\nsamples = 3\nvalue = 60.0"] ;
990 -> 991 ;
992 [label="t-366 <= 72.0\nmse = 1.8\nsamples = 2\nvalue = 61.8"] ;
991 -> 992 ;
993 [label="mse = 0.0\nsamples = 1\nvalue = 60.4"] ;
992 -> 993 ;
994 [label="mse = 0.0\nsamples = 1\nvalue = 63.1"] ;
992 -> 994 ;
995 [label="mse = -0.0\nsamples = 1\nvalue = 56.6"] ;
991 -> 995 ;
996 [label="mse = 0.0\nsamples = 1\nvalue = 50.0"] ;
990 -> 996 ;
997 [label="t-367 <= 63.7\nmse = 26.9\nsamples = 2\nvalue = 75.4"] ;
901 -> 997 ;
998 [label="mse = 0.0\nsamples = 1\nvalue = 70.2"] ;
997 -> 998 ;
999 [label="mse = 0.0\nsamples = 1\nvalue = 80.5"] ;
997 -> 999 ;
1000 [label="t-9 <= 22.7\nmse = 400.1\nsamples = 20\nvalue = 60.7"] ;
900 -> 1000 ;
1001 [label="mse = 0.0\nsamples = 1\nvalue = 126.8"] ;
1000 -> 1001 ;
1002 [label="t-3 <= 43.0\nmse = 179.5\nsamples = 19\nvalue = 57.2"] ;
1000 -> 1002 ;
1003 [label="t-367 <= 102.5\nmse = 15.8\nsamples = 4\nvalue = 73.2"] ;
1002 -> 1003 ;
1004 [label="t-8 <= 50.9\nmse = 4.2\nsamples = 2\nvalue = 76.9"] ;
1003 -> 1004 ;
1005 [label="mse = 0.0\nsamples = 1\nvalue = 74.9"] ;
1004 -> 1005 ;
1006 [label="mse = 0.0\nsamples = 1\nvalue = 79.0"] ;
1004 -> 1006 ;
1007 [label="t-5 <= 82.2\nmse = 0.0\nsamples = 2\nvalue = 69.5"] ;
1003 -> 1007 ;
1008 [label="mse = 0.0\nsamples = 1\nvalue = 69.6"] ;
1007 -> 1008 ;
1009 [label="mse = 0.0\nsamples = 1\nvalue = 69.4"] ;
1007 -> 1009 ;
1010 [label="t-370 <= 30.5\nmse = 136.8\nsamples = 15\nvalue = 53.0"] ;
1002 -> 1010 ;
1011 [label="t-4 <= 52.4\nmse = 2.7\nsamples = 3\nvalue = 68.1"] ;
1010 -> 1011 ;
1012 [label="mse = 0.0\nsamples = 1\nvalue = 65.8"] ;
1011 -> 1012 ;
1013 [label="t-3 <= 56.1\nmse = 0.1\nsamples = 2\nvalue = 69.2"] ;
1011 -> 1013 ;
1014 [label="mse = 0.0\nsamples = 1\nvalue = 68.9"] ;
1013 -> 1014 ;
1015 [label="mse = -0.0\nsamples = 1\nvalue = 69.5"] ;
1013 -> 1015 ;
1016 [label="t-367 <= 101.6\nmse = 99.2\nsamples = 12\nvalue = 49.2"] ;
1010 -> 1016 ;
1017 [label="t-2 <= 50.0\nmse = 62.6\nsamples = 11\nvalue = 47.2"] ;
1016 -> 1017 ;
1018 [label="t-8 <= 41.4\nmse = 30.5\nsamples = 6\nvalue = 42.7"] ;
1017 -> 1018 ;
1019 [label="t-9 <= 42.9\nmse = 5.3\nsamples = 2\nvalue = 50.0"] ;
1018 -> 1019 ;
1020 [label="mse = 0.0\nsamples = 1\nvalue = 52.3"] ;
1019 -> 1020 ;
1021 [label="mse = 0.0\nsamples = 1\nvalue = 47.7"] ;
1019 -> 1021 ;
1022 [label="t-369 <= 42.8\nmse = 3.3\nsamples = 4\nvalue = 39.1"] ;
1018 -> 1022 ;
1023 [label="mse = 0.0\nsamples = 1\nvalue = 42.1"] ;
1022 -> 1023 ;
1024 [label="t-366 <= 111.9\nmse = 0.4\nsamples = 3\nvalue = 38.1"] ;
1022 -> 1024 ;
1025 [label="t-366 <= 74.0\nmse = 0.0\nsamples = 2\nvalue = 37.7"] ;
1024 -> 1025 ;
1026 [label="mse = 0.0\nsamples = 1\nvalue = 37.5"] ;
1025 -> 1026 ;
1027 [label="mse = 0.0\nsamples = 1\nvalue = 37.8"] ;
1025 -> 1027 ;
1028 [label="mse = -0.0\nsamples = 1\nvalue = 38.9"] ;
1024 -> 1028 ;
1029 [label="t-366 <= 91.7\nmse = 47.5\nsamples = 5\nvalue = 52.7"] ;
1017 -> 1029 ;
1030 [label="t-8 <= 42.4\nmse = 6.5\nsamples = 4\nvalue = 49.4"] ;
1029 -> 1030 ;
1031 [label="t-3 <= 154.1\nmse = 0.2\nsamples = 2\nvalue = 51.8"] ;
1030 -> 1031 ;
1032 [label="mse = 0.0\nsamples = 1\nvalue = 52.3"] ;
1031 -> 1032 ;
1033 [label="mse = -0.0\nsamples = 1\nvalue = 51.4"] ;
1031 -> 1033 ;
1034 [label="t-2 <= 61.4\nmse = 0.8\nsamples = 2\nvalue = 47.0"] ;
1030 -> 1034 ;
1035 [label="mse = 0.0\nsamples = 1\nvalue = 47.9"] ;
1034 -> 1035 ;
1036 [label="mse = 0.0\nsamples = 1\nvalue = 46.0"] ;
1034 -> 1036 ;
1037 [label="mse = -0.0\nsamples = 1\nvalue = 65.7"] ;
1029 -> 1037 ;
1038 [label="mse = 0.0\nsamples = 1\nvalue = 70.6"] ;
1016 -> 1038 ;
1039 [label="t-8 <= 25.4\nmse = 93.0\nsamples = 11\nvalue = 35.1"] ;
881 -> 1039 ;
1040 [label="t-10 <= 87.3\nmse = 6.7\nsamples = 3\nvalue = 48.8"] ;
1039 -> 1040 ;
1041 [label="t-4 <= 108.3\nmse = 1.6\nsamples = 2\nvalue = 50.4"] ;
1040 -> 1041 ;
1042 [label="mse = 0.0\nsamples = 1\nvalue = 49.2"] ;
1041 -> 1042 ;
1043 [label="mse = -0.0\nsamples = 1\nvalue = 51.7"] ;
1041 -> 1043 ;
1044 [label="mse = -0.0\nsamples = 1\nvalue = 45.4"] ;
1040 -> 1044 ;
1045 [label="t-365 <= 63.7\nmse = 28.9\nsamples = 8\nvalue = 30.0"] ;
1039 -> 1045 ;
1046 [label="t-9 <= 43.6\nmse = 1.7\nsamples = 3\nvalue = 36.5"] ;
1045 -> 1046 ;
1047 [label="t-3 <= 92.7\nmse = 0.1\nsamples = 2\nvalue = 35.6"] ;
1046 -> 1047 ;
1048 [label="mse = 0.0\nsamples = 1\nvalue = 35.3"] ;
1047 -> 1048 ;
1049 [label="mse = 0.0\nsamples = 1\nvalue = 36.0"] ;
1047 -> 1049 ;
1050 [label="mse = -0.0\nsamples = 1\nvalue = 38.3"] ;
1046 -> 1050 ;
1051 [label="t-8 <= 62.4\nmse = 3.9\nsamples = 5\nvalue = 26.0"] ;
1045 -> 1051 ;
1052 [label="t-2 <= 72.6\nmse = 1.2\nsamples = 3\nvalue = 24.6"] ;
1051 -> 1052 ;
1053 [label="mse = 0.0\nsamples = 1\nvalue = 23.1"] ;
1052 -> 1053 ;
1054 [label="t-7 <= 56.7\nmse = 0.2\nsamples = 2\nvalue = 25.3"] ;
1052 -> 1054 ;
1055 [label="mse = 0.0\nsamples = 1\nvalue = 24.9"] ;
1054 -> 1055 ;
1056 [label="mse = 0.0\nsamples = 1\nvalue = 25.8"] ;
1054 -> 1056 ;
1057 [label="t-368 <= 53.5\nmse = 0.4\nsamples = 2\nvalue = 28.2"] ;
1051 -> 1057 ;
1058 [label="mse = 0.0\nsamples = 1\nvalue = 27.5"] ;
1057 -> 1058 ;
1059 [label="mse = -0.0\nsamples = 1\nvalue = 28.8"] ;
1057 -> 1059 ;
1060 [label="t-370 <= 92.3\nmse = 620.0\nsamples = 17\nvalue = 64.1"] ;
870 -> 1060 ;
1061 [label="t-4 <= 58.9\nmse = 359.4\nsamples = 2\nvalue = 110.5"] ;
1060 -> 1061 ;
1062 [label="mse = 0.0\nsamples = 1\nvalue = 129.4"] ;
1061 -> 1062 ;
1063 [label="mse = 0.0\nsamples = 1\nvalue = 91.5"] ;
1061 -> 1063 ;
1064 [label="t-369 <= 95.0\nmse = 330.5\nsamples = 15\nvalue = 58.0"] ;
1060 -> 1064 ;
1065 [label="t-365 <= 57.9\nmse = 201.7\nsamples = 11\nvalue = 49.9"] ;
1064 -> 1065 ;
1066 [label="t-369 <= 53.7\nmse = 39.2\nsamples = 4\nvalue = 63.6"] ;
1065 -> 1066 ;
1067 [label="t-3 <= 67.8\nmse = 2.1\nsamples = 2\nvalue = 69.5"] ;
1066 -> 1067 ;
1068 [label="mse = 0.0\nsamples = 1\nvalue = 71.0"] ;
1067 -> 1068 ;
1069 [label="mse = 0.0\nsamples = 1\nvalue = 68.0"] ;
1067 -> 1069 ;
1070 [label="t-1 <= 42.6\nmse = 7.4\nsamples = 2\nvalue = 57.8"] ;
1066 -> 1070 ;
1071 [label="mse = 0.0\nsamples = 1\nvalue = 60.5"] ;
1070 -> 1071 ;
1072 [label="mse = -0.0\nsamples = 1\nvalue = 55.0"] ;
1070 -> 1072 ;
1073 [label="t-5 <= 66.4\nmse = 125.9\nsamples = 7\nvalue = 42.1"] ;
1065 -> 1073 ;
1074 [label="t-2 <= 71.7\nmse = 63.3\nsamples = 3\nvalue = 52.4"] ;
1073 -> 1074 ;
1075 [label="t-369 <= 56.4\nmse = 0.2\nsamples = 2\nvalue = 58.0"] ;
1074 -> 1075 ;
1076 [label="mse = 0.0\nsamples = 1\nvalue = 58.5"] ;
1075 -> 1076 ;
1077 [label="mse = 0.0\nsamples = 1\nvalue = 57.5"] ;
1075 -> 1077 ;
1078 [label="mse = 0.0\nsamples = 1\nvalue = 41.1"] ;
1074 -> 1078 ;
1079 [label="t-369 <= 59.1\nmse = 34.8\nsamples = 4\nvalue = 34.4"] ;
1073 -> 1079 ;
1080 [label="t-3 <= 53.7\nmse = 13.4\nsamples = 2\nvalue = 29.2"] ;
1079 -> 1080 ;
1081 [label="mse = 0.0\nsamples = 1\nvalue = 32.8"] ;
1080 -> 1081 ;
1082 [label="mse = 0.0\nsamples = 1\nvalue = 25.5"] ;
1080 -> 1082 ;
1083 [label="t-6 <= 66.0\nmse = 1.2\nsamples = 2\nvalue = 39.6"] ;
1079 -> 1083 ;
1084 [label="mse = 0.0\nsamples = 1\nvalue = 38.5"] ;
1083 -> 1084 ;
1085 [label="mse = -0.0\nsamples = 1\nvalue = 40.8"] ;
1083 -> 1085 ;
1086 [label="t-6 <= 45.3\nmse = 20.0\nsamples = 4\nvalue = 80.0"] ;
1064 -> 1086 ;
1087 [label="t-367 <= 77.3\nmse = 1.5\nsamples = 2\nvalue = 84.2"] ;
1086 -> 1087 ;
1088 [label="mse = 0.0\nsamples = 1\nvalue = 85.4"] ;
1087 -> 1088 ;
1089 [label="mse = -0.0\nsamples = 1\nvalue = 83.0"] ;
1087 -> 1089 ;
1090 [label="t-365 <= 62.2\nmse = 4.1\nsamples = 2\nvalue = 75.9"] ;
1086 -> 1090 ;
1091 [label="mse = 0.0\nsamples = 1\nvalue = 77.9"] ;
1090 -> 1091 ;
1092 [label="mse = -0.0\nsamples = 1\nvalue = 73.9"] ;
1090 -> 1092 ;
1093 [label="t-9 <= 41.5\nmse = 1428.1\nsamples = 5\nvalue = 81.4"] ;
667 -> 1093 ;
1094 [label="t-7 <= 28.6\nmse = 250.0\nsamples = 2\nvalue = 122.4"] ;
1093 -> 1094 ;
1095 [label="mse = 0.0\nsamples = 1\nvalue = 106.6"] ;
1094 -> 1095 ;
1096 [label="mse = 0.0\nsamples = 1\nvalue = 138.2"] ;
1094 -> 1096 ;
1097 [label="t-6 <= 62.0\nmse = 342.3\nsamples = 3\nvalue = 54.0"] ;
1093 -> 1097 ;
1098 [label="mse = 0.0\nsamples = 1\nvalue = 28.6"] ;
1097 -> 1098 ;
1099 [label="t-4 <= 102.5\nmse = 27.3\nsamples = 2\nvalue = 66.8"] ;
1097 -> 1099 ;
1100 [label="mse = 0.0\nsamples = 1\nvalue = 61.5"] ;
1099 -> 1100 ;
1101 [label="mse = -0.0\nsamples = 1\nvalue = 72.0"] ;
1099 -> 1101 ;
1102 [label="mse = 0.0\nsamples = 1\nvalue = 138.2"] ;
552 -> 1102 ;
1103 [label="t-365 <= 43.6\nmse = 3460.1\nsamples = 4\nvalue = 99.2"] ;
551 -> 1103 ;
1104 [label="t-5 <= 74.8\nmse = 663.1\nsamples = 2\nvalue = 153.6"] ;
1103 -> 1104 ;
1105 [label="mse = 0.0\nsamples = 1\nvalue = 127.8"] ;
1104 -> 1105 ;
1106 [label="mse = 0.0\nsamples = 1\nvalue = 179.3"] ;
1104 -> 1106 ;
1107 [label="t-366 <= 170.1\nmse = 343.8\nsamples = 2\nvalue = 44.8"] ;
1103 -> 1107 ;
1108 [label="mse = 0.0\nsamples = 1\nvalue = 26.3"] ;
1107 -> 1108 ;
1109 [label="mse = 0.0\nsamples = 1\nvalue = 63.4"] ;
1107 -> 1109 ;
1110 [label="t-370 <= 130.4\nmse = 1211.9\nsamples = 318\nvalue = 70.6"] ;
0 -> 1110 [labeldistance=2.5, labelangle=-45, headlabel="False"] ;
1111 [label="t-8 <= 176.7\nmse = 1106.2\nsamples = 290\nvalue = 67.6"] ;
1110 -> 1111 ;
1112 [label="t-1 <= 139.0\nmse = 1020.8\nsamples = 286\nvalue = 66.5"] ;
1111 -> 1112 ;
1113 [label="t-3 <= 178.4\nmse = 847.0\nsamples = 274\nvalue = 64.8"] ;
1112 -> 1113 ;
1114 [label="t-10 <= 204.2\nmse = 803.8\nsamples = 273\nvalue = 64.4"] ;
1113 -> 1114 ;
1115 [label="t-369 <= 134.3\nmse = 762.3\nsamples = 272\nvalue = 64.0"] ;
1114 -> 1115 ;
1116 [label="t-5 <= 118.2\nmse = 670.0\nsamples = 257\nvalue = 62.3"] ;
1115 -> 1116 ;
1117 [label="t-1 <= 82.2\nmse = 552.3\nsamples = 239\nvalue = 60.6"] ;
1116 -> 1117 ;
1118 [label="t-2 <= 88.3\nmse = 556.0\nsamples = 170\nvalue = 57.7"] ;
1117 -> 1118 ;
1119 [label="t-9 <= 23.6\nmse = 543.1\nsamples = 145\nvalue = 60.3"] ;
1118 -> 1119 ;
1120 [label="t-10 <= 30.1\nmse = 195.5\nsamples = 12\nvalue = 42.3"] ;
1119 -> 1120 ;
1121 [label="t-370 <= 27.2\nmse = 64.1\nsamples = 6\nvalue = 31.9"] ;
1120 -> 1121 ;
1122 [label="t-370 <= 16.7\nmse = 12.3\nsamples = 3\nvalue = 39.4"] ;
1121 -> 1122 ;
1123 [label="mse = 0.0\nsamples = 1\nvalue = 44.3"] ;
1122 -> 1123 ;
1124 [label="t-9 <= 17.4\nmse = 0.5\nsamples = 2\nvalue = 37.0"] ;
1122 -> 1124 ;
1125 [label="mse = 0.0\nsamples = 1\nvalue = 37.7"] ;
1124 -> 1125 ;
1126 [label="mse = 0.0\nsamples = 1\nvalue = 36.3"] ;
1124 -> 1126 ;
1127 [label="t-2 <= 81.2\nmse = 3.3\nsamples = 3\nvalue = 24.4"] ;
1121 -> 1127 ;
1128 [label="t-365 <= 60.7\nmse = 0.2\nsamples = 2\nvalue = 25.7"] ;
1127 -> 1128 ;
1129 [label="mse = 0.0\nsamples = 1\nvalue = 25.3"] ;
1128 -> 1129 ;
1130 [label="mse = 0.0\nsamples = 1\nvalue = 26.1"] ;
1128 -> 1130 ;
1131 [label="mse = 0.0\nsamples = 1\nvalue = 21.9"] ;
1127 -> 1131 ;
1132 [label="t-2 <= 43.2\nmse = 113.5\nsamples = 6\nvalue = 52.6"] ;
1120 -> 1132 ;
1133 [label="t-1 <= 66.6\nmse = 17.2\nsamples = 2\nvalue = 66.4"] ;
1132 -> 1133 ;
1134 [label="mse = 0.0\nsamples = 1\nvalue = 70.5"] ;
1133 -> 1134 ;
1135 [label="mse = -0.0\nsamples = 1\nvalue = 62.2"] ;
1133 -> 1135 ;
1136 [label="t-2 <= 64.1\nmse = 18.8\nsamples = 4\nvalue = 45.7"] ;
1132 -> 1136 ;
1137 [label="t-1 <= 64.2\nmse = 1.3\nsamples = 3\nvalue = 43.3"] ;
1136 -> 1137 ;
1138 [label="t-7 <= 37.8\nmse = 0.4\nsamples = 2\nvalue = 44.0"] ;
1137 -> 1138 ;
1139 [label="mse = 0.0\nsamples = 1\nvalue = 44.6"] ;
1138 -> 1139 ;
1140 [label="mse = 0.0\nsamples = 1\nvalue = 43.4"] ;
1138 -> 1140 ;
1141 [label="mse = -0.0\nsamples = 1\nvalue = 41.8"] ;
1137 -> 1141 ;
1142 [label="mse = -0.0\nsamples = 1\nvalue = 53.0"] ;
1136 -> 1142 ;
1143 [label="t-8 <= 31.4\nmse = 542.4\nsamples = 133\nvalue = 61.9"] ;
1119 -> 1143 ;
1144 [label="t-8 <= 30.7\nmse = 532.0\nsamples = 26\nvalue = 72.8"] ;
1143 -> 1144 ;
1145 [label="t-369 <= 57.5\nmse = 401.2\nsamples = 24\nvalue = 69.1"] ;
1144 -> 1145 ;
1146 [label="t-368 <= 50.3\nmse = 227.7\nsamples = 19\nvalue = 62.5"] ;
1145 -> 1146 ;
1147 [label="t-365 <= 32.3\nmse = 110.2\nsamples = 12\nvalue = 68.9"] ;
1146 -> 1147 ;
1148 [label="t-3 <= 16.3\nmse = 2.2\nsamples = 3\nvalue = 81.6"] ;
1147 -> 1148 ;
1149 [label="mse = 0.0\nsamples = 1\nvalue = 83.6"] ;
1148 -> 1149 ;
1150 [label="t-3 <= 27.8\nmse = 0.4\nsamples = 2\nvalue = 80.6"] ;
1148 -> 1150 ;
1151 [label="mse = 0.0\nsamples = 1\nvalue = 81.3"] ;
1150 -> 1151 ;
1152 [label="mse = -0.0\nsamples = 1\nvalue = 80.0"] ;
1150 -> 1152 ;
1153 [label="t-366 <= 47.1\nmse = 73.9\nsamples = 9\nvalue = 64.6"] ;
1147 -> 1153 ;
1154 [label="t-10 <= 28.1\nmse = 19.7\nsamples = 7\nvalue = 60.7"] ;
1153 -> 1154 ;
1155 [label="t-368 <= 44.3\nmse = 6.8\nsamples = 4\nvalue = 64.0"] ;
1154 -> 1155 ;
1156 [label="t-365 <= 44.9\nmse = 0.7\nsamples = 2\nvalue = 66.5"] ;
1155 -> 1156 ;
1157 [label="mse = 0.0\nsamples = 1\nvalue = 67.3"] ;
1156 -> 1157 ;
1158 [label="mse = 0.0\nsamples = 1\nvalue = 65.7"] ;
1156 -> 1158 ;
1159 [label="t-4 <= 44.7\nmse = 0.0\nsamples = 2\nvalue = 61.4"] ;
1155 -> 1159 ;
1160 [label="mse = 0.0\nsamples = 1\nvalue = 61.6"] ;
1159 -> 1160 ;
1161 [label="mse = 0.0\nsamples = 1\nvalue = 61.2"] ;
1159 -> 1161 ;
1162 [label="t-5 <= 20.5\nmse = 3.0\nsamples = 3\nvalue = 56.3"] ;
1154 -> 1162 ;
1163 [label="mse = 0.0\nsamples = 1\nvalue = 58.5"] ;
1162 -> 1163 ;
1164 [label="t-370 <= 30.5\nmse = 0.8\nsamples = 2\nvalue = 55.2"] ;
1162 -> 1164 ;
1165 [label="mse = 0.0\nsamples = 1\nvalue = 56.1"] ;
1164 -> 1165 ;
1166 [label="mse = -0.0\nsamples = 1\nvalue = 54.2"] ;
1164 -> 1166 ;
1167 [label="t-370 <= 31.5\nmse = 18.4\nsamples = 2\nvalue = 78.4"] ;
1153 -> 1167 ;
1168 [label="mse = 0.0\nsamples = 1\nvalue = 74.1"] ;
1167 -> 1168 ;
1169 [label="mse = 0.0\nsamples = 1\nvalue = 82.7"] ;
1167 -> 1169 ;
1170 [label="t-2 <= 84.0\nmse = 240.7\nsamples = 7\nvalue = 51.6"] ;
1146 -> 1170 ;
1171 [label="t-4 <= 36.4\nmse = 96.7\nsamples = 6\nvalue = 46.5"] ;
1170 -> 1171 ;
1172 [label="mse = 0.0\nsamples = 1\nvalue = 66.2"] ;
1171 -> 1172 ;
1173 [label="t-7 <= 38.2\nmse = 22.0\nsamples = 5\nvalue = 42.5"] ;
1171 -> 1173 ;
1174 [label="t-3 <= 38.1\nmse = 2.2\nsamples = 4\nvalue = 44.8"] ;
1173 -> 1174 ;
1175 [label="mse = 0.0\nsamples = 1\nvalue = 42.3"] ;
1174 -> 1175 ;
1176 [label="t-6 <= 36.6\nmse = 0.3\nsamples = 3\nvalue = 45.6"] ;
1174 -> 1176 ;
1177 [label="mse = 0.0\nsamples = 1\nvalue = 46.2"] ;
1176 -> 1177 ;
1178 [label="t-368 <= 57.2\nmse = 0.1\nsamples = 2\nvalue = 45.2"] ;
1176 -> 1178 ;
1179 [label="mse = 0.0\nsamples = 1\nvalue = 45.5"] ;
1178 -> 1179 ;
1180 [label="mse = -0.0\nsamples = 1\nvalue = 44.9"] ;
1178 -> 1180 ;
1181 [label="mse = 0.0\nsamples = 1\nvalue = 33.5"] ;
1173 -> 1181 ;
1182 [label="mse = 0.0\nsamples = 1\nvalue = 82.4"] ;
1170 -> 1182 ;
1183 [label="t-367 <= 95.6\nmse = 255.1\nsamples = 5\nvalue = 94.4"] ;
1145 -> 1183 ;
1184 [label="t-2 <= 57.8\nmse = 41.2\nsamples = 4\nvalue = 86.9"] ;
1183 -> 1184 ;
1185 [label="t-4 <= 48.3\nmse = 3.4\nsamples = 2\nvalue = 92.5"] ;
1184 -> 1185 ;
1186 [label="mse = 0.0\nsamples = 1\nvalue = 90.7"] ;
1185 -> 1186 ;
1187 [label="mse = 0.0\nsamples = 1\nvalue = 94.4"] ;
1185 -> 1187 ;
1188 [label="t-365 <= 33.2\nmse = 16.5\nsamples = 2\nvalue = 81.4"] ;
1184 -> 1188 ;
1189 [label="mse = 0.0\nsamples = 1\nvalue = 77.3"] ;
1188 -> 1189 ;
1190 [label="mse = -0.0\nsamples = 1\nvalue = 85.4"] ;
1188 -> 1190 ;
1191 [label="mse = -0.0\nsamples = 1\nvalue = 124.2"] ;
1183 -> 1191 ;
1192 [label="t-7 <= 30.5\nmse = 0.1\nsamples = 2\nvalue = 116.9"] ;
1144 -> 1192 ;
1193 [label="mse = 0.0\nsamples = 1\nvalue = 117.1"] ;
1192 -> 1193 ;
1194 [label="mse = -0.0\nsamples = 1\nvalue = 116.6"] ;
1192 -> 1194 ;
1195 [label="t-8 <= 101.8\nmse = 509.2\nsamples = 107\nvalue = 59.3"] ;
1143 -> 1195 ;
1196 [label="t-4 <= 138.9\nmse = 422.4\nsamples = 100\nvalue = 57.6"] ;
1195 -> 1196 ;
1197 [label="t-9 <= 93.0\nmse = 395.2\nsamples = 99\nvalue = 57.1"] ;
1196 -> 1197 ;
1198 [label="t-367 <= 128.0\nmse = 390.8\nsamples = 91\nvalue = 58.8"] ;
1197 -> 1198 ;
1199 [label="t-2 <= 71.4\nmse = 354.7\nsamples = 88\nvalue = 57.6"] ;
1198 -> 1199 ;
1200 [label="t-2 <= 53.2\nmse = 351.7\nsamples = 75\nvalue = 55.4"] ;
1199 -> 1200 ;
1201 [label="t-366 <= 24.9\nmse = 385.3\nsamples = 46\nvalue = 60.8"] ;
1200 -> 1201 ;
1202 [label="t-366 <= 23.9\nmse = 44.6\nsamples = 4\nvalue = 36.2"] ;
1201 -> 1202 ;
1203 [label="t-1 <= 57.0\nmse = 1.1\nsamples = 2\nvalue = 30.0"] ;
1202 -> 1203 ;
1204 [label="mse = 0.0\nsamples = 1\nvalue = 31.0"] ;
1203 -> 1204 ;
1205 [label="mse = 0.0\nsamples = 1\nvalue = 28.9"] ;
1203 -> 1205 ;
1206 [label="t-365 <= 31.4\nmse = 10.4\nsamples = 2\nvalue = 42.4"] ;
1202 -> 1206 ;
1207 [label="mse = 0.0\nsamples = 1\nvalue = 45.7"] ;
1206 -> 1207 ;
1208 [label="mse = -0.0\nsamples = 1\nvalue = 39.2"] ;
1206 -> 1208 ;
1209 [label="t-366 <= 28.7\nmse = 354.6\nsamples = 42\nvalue = 63.2"] ;
1201 -> 1209 ;
1210 [label="t-3 <= 26.9\nmse = 1.7\nsamples = 2\nvalue = 102.8"] ;
1209 -> 1210 ;
1211 [label="mse = 0.0\nsamples = 1\nvalue = 101.5"] ;
1210 -> 1211 ;
1212 [label="mse = 0.0\nsamples = 1\nvalue = 104.0"] ;
1210 -> 1212 ;
1213 [label="t-8 <= 40.3\nmse = 290.0\nsamples = 40\nvalue = 61.2"] ;
1209 -> 1213 ;
1214 [label="t-7 <= 43.2\nmse = 107.7\nsamples = 10\nvalue = 49.1"] ;
1213 -> 1214 ;
1215 [label="t-1 <= 59.8\nmse = 38.1\nsamples = 4\nvalue = 59.1"] ;
1214 -> 1215 ;
1216 [label="mse = 0.0\nsamples = 1\nvalue = 68.2"] ;
1215 -> 1216 ;
1217 [label="t-3 <= 36.0\nmse = 13.9\nsamples = 3\nvalue = 56.1"] ;
1215 -> 1217 ;
1218 [label="mse = 0.0\nsamples = 1\nvalue = 50.8"] ;
1217 -> 1218 ;
1219 [label="t-369 <= 39.1\nmse = 0.4\nsamples = 2\nvalue = 58.7"] ;
1217 -> 1219 ;
1220 [label="mse = 0.0\nsamples = 1\nvalue = 59.3"] ;
1219 -> 1220 ;
1221 [label="mse = 0.0\nsamples = 1\nvalue = 58.0"] ;
1219 -> 1221 ;
1222 [label="t-6 <= 68.0\nmse = 44.0\nsamples = 6\nvalue = 42.5"] ;
1214 -> 1222 ;
1223 [label="t-369 <= 88.3\nmse = 13.8\nsamples = 4\nvalue = 46.5"] ;
1222 -> 1223 ;
1224 [label="t-368 <= 62.0\nmse = 4.0\nsamples = 3\nvalue = 44.6"] ;
1223 -> 1224 ;
1225 [label="t-3 <= 37.0\nmse = 0.4\nsamples = 2\nvalue = 46.0"] ;
1224 -> 1225 ;
1226 [label="mse = 0.0\nsamples = 1\nvalue = 45.4"] ;
1225 -> 1226 ;
1227 [label="mse = 0.0\nsamples = 1\nvalue = 46.6"] ;
1225 -> 1227 ;
1228 [label="mse = 0.0\nsamples = 1\nvalue = 41.9"] ;
1224 -> 1228 ;
1229 [label="mse = 0.0\nsamples = 1\nvalue = 52.2"] ;
1223 -> 1229 ;
1230 [label="t-369 <= 56.8\nmse = 7.7\nsamples = 2\nvalue = 34.5"] ;
1222 -> 1230 ;
1231 [label="mse = 0.0\nsamples = 1\nvalue = 37.2"] ;
1230 -> 1231 ;
1232 [label="mse = -0.0\nsamples = 1\nvalue = 31.7"] ;
1230 -> 1232 ;
1233 [label="t-367 <= 77.9\nmse = 286.3\nsamples = 30\nvalue = 65.2"] ;
1213 -> 1233 ;
1234 [label="t-365 <= 39.9\nmse = 187.1\nsamples = 24\nvalue = 60.4"] ;
1233 -> 1234 ;
1235 [label="t-7 <= 52.2\nmse = 158.7\nsamples = 6\nvalue = 73.6"] ;
1234 -> 1235 ;
1236 [label="t-10 <= 35.8\nmse = 0.3\nsamples = 2\nvalue = 88.3"] ;
1235 -> 1236 ;
1237 [label="mse = 0.0\nsamples = 1\nvalue = 87.8"] ;
1236 -> 1237 ;
1238 [label="mse = -0.0\nsamples = 1\nvalue = 88.9"] ;
1236 -> 1238 ;
1239 [label="t-4 <= 82.5\nmse = 74.2\nsamples = 4\nvalue = 66.2"] ;
1235 -> 1239 ;
1240 [label="t-9 <= 57.0\nmse = 22.3\nsamples = 3\nvalue = 61.8"] ;
1239 -> 1240 ;
1241 [label="t-3 <= 49.1\nmse = 0.1\nsamples = 2\nvalue = 65.1"] ;
1240 -> 1241 ;
1242 [label="mse = 0.0\nsamples = 1\nvalue = 64.8"] ;
1241 -> 1242 ;
1243 [label="mse = 0.0\nsamples = 1\nvalue = 65.5"] ;
1241 -> 1243 ;
1244 [label="mse = 0.0\nsamples = 1\nvalue = 55.1"] ;
1240 -> 1244 ;
1245 [label="mse = -0.0\nsamples = 1\nvalue = 79.3"] ;
1239 -> 1245 ;
1246 [label="t-2 <= 39.7\nmse = 120.2\nsamples = 18\nvalue = 56.1"] ;
1234 -> 1246 ;
1247 [label="t-365 <= 59.6\nmse = 49.9\nsamples = 5\nvalue = 66.3"] ;
1246 -> 1247 ;
1248 [label="t-5 <= 56.9\nmse = 21.8\nsamples = 2\nvalue = 58.8"] ;
1247 -> 1248 ;
1249 [label="mse = 0.0\nsamples = 1\nvalue = 63.5"] ;
1248 -> 1249 ;
1250 [label="mse = 0.0\nsamples = 1\nvalue = 54.1"] ;
1248 -> 1250 ;
1251 [label="t-368 <= 46.5\nmse = 6.0\nsamples = 3\nvalue = 71.3"] ;
1247 -> 1251 ;
1252 [label="mse = 0.0\nsamples = 1\nvalue = 67.8"] ;
1251 -> 1252 ;
1253 [label="t-369 <= 70.7\nmse = 0.0\nsamples = 2\nvalue = 73.0"] ;
1251 -> 1253 ;
1254 [label="mse = 0.0\nsamples = 1\nvalue = 72.9"] ;
1253 -> 1254 ;
1255 [label="mse = 0.0\nsamples = 1\nvalue = 73.2"] ;
1253 -> 1255 ;
1256 [label="t-4 <= 64.6\nmse = 91.4\nsamples = 13\nvalue = 52.1"] ;
1246 -> 1256 ;
1257 [label="t-3 <= 40.3\nmse = 37.7\nsamples = 11\nvalue = 48.9"] ;
1256 -> 1257 ;
1258 [label="t-6 <= 115.7\nmse = 27.0\nsamples = 6\nvalue = 53.3"] ;
1257 -> 1258 ;
1259 [label="t-10 <= 19.6\nmse = 11.8\nsamples = 5\nvalue = 51.4"] ;
1258 -> 1259 ;
1260 [label="mse = 0.0\nsamples = 1\nvalue = 58.0"] ;
1259 -> 1260 ;
1261 [label="t-5 <= 17.3\nmse = 1.1\nsamples = 4\nvalue = 49.8"] ;
1259 -> 1261 ;
1262 [label="mse = 0.0\nsamples = 1\nvalue = 51.6"] ;
1261 -> 1262 ;
1263 [label="t-8 <= 69.8\nmse = 0.1\nsamples = 3\nvalue = 49.2"] ;
1261 -> 1263 ;
1264 [label="t-370 <= 51.7\nmse = 0.0\nsamples = 2\nvalue = 49.4"] ;
1263 -> 1264 ;
1265 [label="mse = 0.0\nsamples = 1\nvalue = 49.4"] ;
1264 -> 1265 ;
1266 [label="mse = 0.0\nsamples = 1\nvalue = 49.3"] ;
1264 -> 1266 ;
1267 [label="mse = 0.0\nsamples = 1\nvalue = 48.8"] ;
1263 -> 1267 ;
1268 [label="mse = -0.0\nsamples = 1\nvalue = 62.5"] ;
1258 -> 1268 ;
1269 [label="t-3 <= 58.0\nmse = 0.1\nsamples = 5\nvalue = 43.7"] ;
1257 -> 1269 ;
1270 [label="t-6 <= 43.8\nmse = 0.0\nsamples = 3\nvalue = 43.9"] ;
1269 -> 1270 ;
1271 [label="t-366 <= 66.0\nmse = 0.0\nsamples = 2\nvalue = 44.0"] ;
1270 -> 1271 ;
1272 [label="mse = 0.0\nsamples = 1\nvalue = 44.0"] ;
1271 -> 1272 ;
1273 [label="mse = -0.0\nsamples = 1\nvalue = 43.9"] ;
1271 -> 1273 ;
1274 [label="mse = -0.0\nsamples = 1\nvalue = 43.8"] ;
1270 -> 1274 ;
1275 [label="t-5 <= 37.2\nmse = 0.0\nsamples = 2\nvalue = 43.3"] ;
1269 -> 1275 ;
1276 [label="mse = 0.0\nsamples = 1\nvalue = 43.4"] ;
1275 -> 1276 ;
1277 [label="mse = -0.0\nsamples = 1\nvalue = 43.1"] ;
1275 -> 1277 ;
1278 [label="t-6 <= 68.9\nmse = 12.4\nsamples = 2\nvalue = 69.9"] ;
1256 -> 1278 ;
1279 [label="mse = 0.0\nsamples = 1\nvalue = 66.4"] ;
1278 -> 1279 ;
1280 [label="mse = 0.0\nsamples = 1\nvalue = 73.5"] ;
1278 -> 1280 ;
1281 [label="t-4 <= 56.1\nmse = 231.0\nsamples = 6\nvalue = 84.2"] ;
1233 -> 1281 ;
1282 [label="t-5 <= 42.7\nmse = 113.0\nsamples = 3\nvalue = 71.4"] ;
1281 -> 1282 ;
1283 [label="mse = 0.0\nsamples = 1\nvalue = 86.1"] ;
1282 -> 1283 ;
1284 [label="t-366 <= 85.9\nmse = 7.2\nsamples = 2\nvalue = 64.0"] ;
1282 -> 1284 ;
1285 [label="mse = 0.0\nsamples = 1\nvalue = 61.3"] ;
1284 -> 1285 ;
1286 [label="mse = 0.0\nsamples = 1\nvalue = 66.7"] ;
1284 -> 1286 ;
1287 [label="t-365 <= 53.7\nmse = 19.5\nsamples = 3\nvalue = 97.0"] ;
1281 -> 1287 ;
1288 [label="mse = 0.0\nsamples = 1\nvalue = 91.3"] ;
1287 -> 1288 ;
1289 [label="t-368 <= 53.9\nmse = 4.5\nsamples = 2\nvalue = 99.9"] ;
1287 -> 1289 ;
1290 [label="mse = 0.0\nsamples = 1\nvalue = 97.8"] ;
1289 -> 1290 ;
1291 [label="mse = 0.0\nsamples = 1\nvalue = 102.0"] ;
1289 -> 1291 ;
1292 [label="t-367 <= 46.7\nmse = 176.9\nsamples = 29\nvalue = 46.7"] ;
1200 -> 1292 ;
1293 [label="t-366 <= 41.2\nmse = 135.5\nsamples = 13\nvalue = 39.7"] ;
1292 -> 1293 ;
1294 [label="t-370 <= 28.2\nmse = 103.0\nsamples = 7\nvalue = 47.4"] ;
1293 -> 1294 ;
1295 [label="t-367 <= 34.3\nmse = 0.6\nsamples = 2\nvalue = 59.2"] ;
1294 -> 1295 ;
1296 [label="mse = 0.0\nsamples = 1\nvalue = 60.0"] ;
1295 -> 1296 ;
1297 [label="mse = 0.0\nsamples = 1\nvalue = 58.5"] ;
1295 -> 1297 ;
1298 [label="t-1 <= 56.4\nmse = 65.4\nsamples = 5\nvalue = 42.6"] ;
1294 -> 1298 ;
1299 [label="mse = 0.0\nsamples = 1\nvalue = 57.0"] ;
1298 -> 1299 ;
1300 [label="t-6 <= 38.9\nmse = 17.0\nsamples = 4\nvalue = 39.0"] ;
1298 -> 1300 ;
1301 [label="mse = 0.0\nsamples = 1\nvalue = 45.3"] ;
1300 -> 1301 ;
1302 [label="t-370 <= 53.1\nmse = 5.0\nsamples = 3\nvalue = 36.9"] ;
1300 -> 1302 ;
1303 [label="t-365 <= 56.4\nmse = 1.3\nsamples = 2\nvalue = 38.4"] ;
1302 -> 1303 ;
1304 [label="mse = 0.0\nsamples = 1\nvalue = 37.2"] ;
1303 -> 1304 ;
1305 [label="mse = 0.0\nsamples = 1\nvalue = 39.5"] ;
1303 -> 1305 ;
1306 [label="mse = -0.0\nsamples = 1\nvalue = 34.0"] ;
1302 -> 1306 ;
1307 [label="t-369 <= 46.5\nmse = 26.5\nsamples = 6\nvalue = 30.8"] ;
1293 -> 1307 ;
1308 [label="t-369 <= 34.4\nmse = 0.2\nsamples = 3\nvalue = 35.8"] ;
1307 -> 1308 ;
1309 [label="mse = 0.0\nsamples = 1\nvalue = 36.5"] ;
1308 -> 1309 ;
1310 [label="t-3 <= 66.7\nmse = 0.0\nsamples = 2\nvalue = 35.5"] ;
1308 -> 1310 ;
1311 [label="mse = 0.0\nsamples = 1\nvalue = 35.6"] ;
1310 -> 1311 ;
1312 [label="mse = 0.0\nsamples = 1\nvalue = 35.4"] ;
1310 -> 1312 ;
1313 [label="t-369 <= 72.9\nmse = 3.4\nsamples = 3\nvalue = 25.9"] ;
1307 -> 1313 ;
1314 [label="t-369 <= 52.6\nmse = 0.3\nsamples = 2\nvalue = 27.1"] ;
1313 -> 1314 ;
1315 [label="mse = 0.0\nsamples = 1\nvalue = 26.6"] ;
1314 -> 1315 ;
1316 [label="mse = 0.0\nsamples = 1\nvalue = 27.7"] ;
1314 -> 1316 ;
1317 [label="mse = -0.0\nsamples = 1\nvalue = 23.3"] ;
1313 -> 1317 ;
1318 [label="t-366 <= 65.6\nmse = 138.4\nsamples = 16\nvalue = 52.4"] ;
1292 -> 1318 ;
1319 [label="t-2 <= 66.1\nmse = 63.5\nsamples = 11\nvalue = 57.4"] ;
1318 -> 1319 ;
1320 [label="t-367 <= 57.1\nmse = 11.9\nsamples = 8\nvalue = 52.9"] ;
1319 -> 1320 ;
1321 [label="t-6 <= 42.5\nmse = 1.1\nsamples = 4\nvalue = 49.9"] ;
1320 -> 1321 ;
1322 [label="mse = 0.0\nsamples = 2\nvalue = 50.9"] ;
1321 -> 1322 ;
1323 [label="t-1 <= 61.3\nmse = 0.0\nsamples = 2\nvalue = 48.8"] ;
1321 -> 1323 ;
1324 [label="mse = 0.0\nsamples = 1\nvalue = 48.7"] ;
1323 -> 1324 ;
1325 [label="mse = 0.0\nsamples = 1\nvalue = 49.0"] ;
1323 -> 1325 ;
1326 [label="t-370 <= 91.4\nmse = 4.0\nsamples = 4\nvalue = 56.0"] ;
1320 -> 1326 ;
1327 [label="t-9 <= 43.6\nmse = 0.2\nsamples = 3\nvalue = 54.9"] ;
1326 -> 1327 ;
1328 [label="t-6 <= 41.3\nmse = 0.0\nsamples = 2\nvalue = 54.5"] ;
1327 -> 1328 ;
1329 [label="mse = 0.0\nsamples = 1\nvalue = 54.5"] ;
1328 -> 1329 ;
1330 [label="mse = 0.0\nsamples = 1\nvalue = 54.5"] ;
1328 -> 1330 ;
1331 [label="mse = -0.0\nsamples = 1\nvalue = 55.5"] ;
1327 -> 1331 ;
1332 [label="mse = 0.0\nsamples = 1\nvalue = 59.4"] ;
1326 -> 1332 ;
1333 [label="t-365 <= 33.6\nmse = 6.3\nsamples = 3\nvalue = 69.3"] ;
1319 -> 1333 ;
1334 [label="t-368 <= 40.7\nmse = 0.3\nsamples = 2\nvalue = 67.5"] ;
1333 -> 1334 ;
1335 [label="mse = 0.0\nsamples = 1\nvalue = 68.1"] ;
1334 -> 1335 ;
1336 [label="mse = 0.0\nsamples = 1\nvalue = 67.0"] ;
1334 -> 1336 ;
1337 [label="mse = -0.0\nsamples = 1\nvalue = 72.8"] ;
1333 -> 1337 ;
1338 [label="t-365 <= 41.0\nmse = 129.7\nsamples = 5\nvalue = 41.5"] ;
1318 -> 1338 ;
1339 [label="t-10 <= 43.7\nmse = 0.0\nsamples = 2\nvalue = 29.0"] ;
1338 -> 1339 ;
1340 [label="mse = 0.0\nsamples = 1\nvalue = 29.2"] ;
1339 -> 1340 ;
1341 [label="mse = 0.0\nsamples = 1\nvalue = 28.8"] ;
1339 -> 1341 ;
1342 [label="t-365 <= 142.9\nmse = 42.3\nsamples = 3\nvalue = 49.8"] ;
1338 -> 1342 ;
1343 [label="t-7 <= 73.7\nmse = 13.1\nsamples = 2\nvalue = 45.8"] ;
1342 -> 1343 ;
1344 [label="mse = 0.0\nsamples = 1\nvalue = 42.1"] ;
1343 -> 1344 ;
1345 [label="mse = 0.0\nsamples = 1\nvalue = 49.4"] ;
1343 -> 1345 ;
1346 [label="mse = 0.0\nsamples = 1\nvalue = 58.0"] ;
1342 -> 1346 ;
